%YAML:1.0
---
opencv_ml_svm:
   format: 3
   svmType: C_SVC
   kernel:
      type: RBF
      gamma: 5.0000000000000000e-01
   C: 30.
   term_criteria: { epsilon:1.1920928955078125e-07, iterations:1000 }
   var_count: 200
   class_count: 2
   class_labels: !!opencv-matrix
      rows: 2
      cols: 1
      dt: i
      data: [ -1, 1 ]
   sv_total: 412
   support_vectors:
      - [ 0., 0., 2.98507456e-02, 0., 0., 1.49253728e-02, 1.49253728e-02,
          1.49253728e-02, 2.98507456e-02, 0., 1.49253728e-02, 0., 0.,
          2.98507456e-02, 1.49253728e-02, 0., 0., 0., 0., 0., 0., 0., 0.,
          0., 0., 0., 0., 2.98507456e-02, 0., 2.98507456e-02,
          1.49253728e-02, 0., 0., 0., 2.98507456e-02, 0., 0., 0.,
          1.49253728e-02, 0., 0., 0., 1.49253728e-02, 0., 0.,
          1.49253728e-02, 0., 0., 0., 0., 1.49253728e-02, 0., 0., 0., 0.,
          0., 0., 0., 0., 0., 1.49253728e-02, 0., 0., 1.49253728e-02, 0.,
          0., 0., 0., 0., 0., 1.49253728e-02, 0., 0., 0., 0., 0., 0.,
          1.49253728e-02, 0., 0., 1.49253728e-02, 1.49253728e-02, 0., 0.,
          0., 0., 0., 0., 4.47761193e-02, 0., 0., 0., 0., 2.98507456e-02,
          0., 0., 1.49253728e-02, 0., 0., 1.49253728e-02, 1.49253728e-02,
          0., 0., 0., 0., 0., 0., 1.49253728e-02, 0., 0., 1.49253728e-02,
          0., 0., 0., 0., 0., 0., 0., 1.49253728e-02, 0., 1.49253728e-02,
          0., 1.49253728e-02, 0., 0., 0., 0., 0., 0., 0., 0., 0., 0., 0.,
          0., 0., 0., 1.49253728e-02, 0., 1.49253728e-02, 1.49253728e-02,
          0., 2.98507456e-02, 1.49253728e-02, 0., 0., 0., 0., 0., 0., 0.,
          0., 0., 0., 0., 0., 2.98507456e-02, 0., 0., 1.49253728e-02, 0.,
          1.49253728e-02, 1.49253728e-02, 0., 0., 0., 0., 0., 0., 0., 0.,
          0., 1.49253728e-02, 0., 1.49253728e-02, 2.98507456e-02, 0., 0.,
          4.47761193e-02, 0., 2.98507456e-02, 0., 0., 1.49253728e-02, 0.,
          0., 0., 0., 2.98507456e-02, 0., 0., 0., 1.49253728e-02,
          1.49253728e-02, 0., 0., 1.49253728e-02, 0., 0., 0. ]
      - [ 0., 2.85714287e-02, 0., 0., 0., 0., 2.85714287e-02, 0., 0., 0.,
          2.85714287e-02, 0., 2.85714287e-02, 0., 0., 0., 2.85714287e-02,
          2.85714287e-02, 0., 2.85714287e-02, 0., 0., 2.85714287e-02,
          5.71428575e-02, 2.85714287e-02, 0., 2.85714287e-02, 0., 0., 0.,
          0., 0., 0., 0., 2.85714287e-02, 2.85714287e-02, 2.85714287e-02,
          0., 0., 0., 0., 0., 8.57142881e-02, 2.85714287e-02, 0., 0., 0.,
          0., 0., 0., 0., 0., 0., 0., 0., 0., 0., 0., 0., 0., 0.,
          5.71428575e-02, 0., 0., 0., 0., 0., 0., 0., 0., 0.,
          2.85714287e-02, 0., 0., 2.85714287e-02, 0., 0., 0., 0., 0., 0.,
          2.85714287e-02, 0., 0., 0., 0., 0., 0., 2.85714287e-02, 0., 0.,
          0., 0., 0., 0., 0., 0., 0., 0., 0., 0., 0., 0., 0., 0.,
          2.85714287e-02, 0., 0., 0., 0., 0., 0., 0., 0., 2.85714287e-02,
          0., 0., 0., 0., 0., 0., 0., 0., 0., 0., 0., 0., 0., 0., 0.,
          2.85714287e-02, 0., 0., 0., 0., 0., 0., 0., 0., 0.,
          2.85714287e-02, 0., 0., 0., 2.85714287e-02, 0., 0., 0., 0., 0.,
          0., 0., 0., 0., 0., 0., 0., 0., 2.85714287e-02, 0., 0., 0.,
          2.85714287e-02, 0., 0., 0., 0., 0., 0., 0., 0., 0., 0., 0., 0.,
          2.85714287e-02, 0., 0., 0., 0., 0., 0., 0., 0., 0., 0., 0.,
          2.85714287e-02, 0., 2.85714287e-02, 0., 0., 0., 0., 0., 0., 0.,
          0., 0., 0. ]
      - [ 0., 0., 0., 2.32558139e-02, 0., 0., 0., 0., 0., 0.,
          2.32558139e-02, 0., 0., 0., 0., 0., 0., 0., 2.32558139e-02, 0.,
          2.32558139e-02, 0., 0., 0., 0., 0., 0., 0., 0., 0., 0., 0.,
          6.97674453e-02, 4.65116277e-02, 0., 0., 0., 6.97674453e-02, 0.,
          0., 6.97674453e-02, 0., 0., 0., 0., 0., 0., 0., 0., 0., 0., 0.,
          0., 0., 0., 6.97674453e-02, 4.65116277e-02, 0., 0., 0., 0., 0.,
          0., 0., 0., 0., 0., 0., 2.32558139e-02, 0., 0., 0., 0., 0., 0.,
          0., 0., 0., 0., 0., 0., 0., 2.32558139e-02, 0., 0., 0.,
          2.32558139e-02, 0., 0., 2.32558139e-02, 0., 0., 0., 0., 0., 0.,
          0., 0., 0., 0., 0., 0., 0., 0., 0., 0., 2.32558139e-02, 0., 0.,
          0., 0., 0., 0., 0., 0., 0., 0., 0., 2.32558139e-02, 0., 0., 0.,
          0., 0., 0., 0., 0., 0., 0., 0., 0., 0., 2.32558139e-02,
          2.32558139e-02, 0., 0., 0., 0., 6.97674453e-02, 0., 0., 0., 0.,
          0., 0., 0., 2.32558139e-02, 0., 0., 2.32558139e-02, 0., 0., 0.,
          0., 0., 2.32558139e-02, 0., 0., 0., 0., 2.32558139e-02, 0., 0.,
          0., 0., 0., 0., 0., 0., 0., 6.97674453e-02, 2.32558139e-02, 0.,
          0., 0., 0., 2.32558139e-02, 0., 0., 0., 0., 0., 0., 0., 0., 0.,
          0., 0., 0., 2.32558139e-02, 0., 0., 0., 0., 0., 0., 0., 0.,
          2.32558139e-02, 2.32558139e-02 ]
      - [ 0., 0., 0., 0., 0., 0., 0., 0., 2.27272734e-02, 0., 0., 0., 0.,
          4.54545468e-02, 0., 0., 0., 0., 0., 0., 2.27272734e-02,
          2.27272734e-02, 2.27272734e-02, 0., 0., 2.27272734e-02, 0., 0.,
          0., 0., 0., 0., 0., 6.81818202e-02, 0., 0., 0., 0., 0., 0., 0.,
          0., 0., 0., 0., 0., 2.27272734e-02, 0., 0., 0., 4.54545468e-02,
          0., 0., 0., 0., 2.27272734e-02, 0., 0., 0., 0., 0., 0., 0., 0.,
          0., 4.54545468e-02, 0., 0., 0., 0., 0., 0., 0., 0., 0., 0., 0.,
          0., 0., 0., 0., 0., 0., 0., 2.27272734e-02, 0., 0., 0.,
          2.27272734e-02, 0., 0., 2.27272734e-02, 0., 0., 0., 0., 0., 0.,
          0., 0., 0., 0., 0., 2.27272734e-02, 0., 2.27272734e-02, 0., 0.,
          0., 4.54545468e-02, 0., 0., 0., 0., 2.27272734e-02,
          2.27272734e-02, 0., 0., 0., 0., 0., 0., 0., 2.27272734e-02, 0.,
          0., 0., 0., 0., 0., 0., 0., 0., 2.27272734e-02, 0., 0.,
          2.27272734e-02, 0., 0., 0., 0., 0., 0., 2.27272734e-02, 0., 0.,
          2.27272734e-02, 0., 0., 2.27272734e-02, 0., 2.27272734e-02, 0.,
          0., 0., 0., 0., 0., 0., 0., 0., 0., 0., 0., 4.54545468e-02,
          2.27272734e-02, 0., 0., 2.27272734e-02, 0., 0., 0., 0., 0., 0.,
          0., 0., 0., 0., 2.27272734e-02, 0., 6.81818202e-02, 0., 0., 0.,
          2.27272734e-02, 0., 0., 0., 4.54545468e-02, 0., 2.27272734e-02,
          0., 0., 0., 0., 0., 0., 0., 0. ]
      - [ 0., 0., 0., 0., 2.27272734e-02, 0., 0., 0., 0., 0., 0., 0.,
          2.27272734e-02, 0., 0., 0., 0., 0., 0., 2.27272734e-02, 0., 0.,
          0., 0., 2.27272734e-02, 0., 0., 2.27272734e-02, 0., 0., 0., 0.,
          0., 0., 0., 0., 0., 0., 0., 2.27272734e-02, 0., 0., 0.,
          2.27272734e-02, 2.27272734e-02, 0., 0., 0., 0., 0., 0., 0., 0.,
          0., 4.54545468e-02, 0., 0., 0., 2.27272734e-02, 0., 0., 0., 0.,
          0., 0., 0., 0., 0., 2.27272734e-02, 0., 0., 0., 0., 0., 0., 0.,
          2.27272734e-02, 2.27272734e-02, 0., 0., 0., 0., 0., 0.,
          2.27272734e-02, 0., 0., 0., 0., 6.81818202e-02, 2.27272734e-02,
          0., 0., 2.27272734e-02, 0., 0., 2.27272734e-02, 0., 0., 0., 0.,
          2.27272734e-02, 0., 0., 0., 0., 2.27272734e-02, 0.,
          2.27272734e-02, 0., 0., 0., 0., 4.54545468e-02, 0., 0., 0., 0.,
          0., 0., 0., 0., 0., 0., 0., 0., 2.27272734e-02, 0., 0., 0., 0.,
          0., 0., 2.27272734e-02, 0., 0., 0., 0., 0., 0., 2.27272734e-02,
          2.27272734e-02, 2.27272734e-02, 0., 0., 0., 0., 0., 0., 0., 0.,
          0., 2.27272734e-02, 0., 2.27272734e-02, 2.27272734e-02, 0., 0.,
          0., 0., 0., 0., 2.27272734e-02, 0., 0., 0., 0., 0., 0., 0., 0.,
          0., 0., 2.27272734e-02, 0., 0., 0., 0., 2.27272734e-02,
          2.27272734e-02, 4.54545468e-02, 0., 0., 0., 0., 2.27272734e-02,
          4.54545468e-02, 0., 0., 0., 0., 0., 0., 0., 0., 0., 0.,
          2.27272734e-02, 0., 0. ]
      - [ 1.38888890e-02, 0., 0., 0., 0., 0., 0., 0., 0., 1.38888890e-02,
          0., 1.38888890e-02, 1.38888890e-02, 1.38888890e-02, 0., 0., 0.,
          0., 1.38888890e-02, 0., 1.38888890e-02, 0., 0., 0., 0., 0., 0.,
          1.38888890e-02, 0., 0., 0., 0., 0., 0., 1.38888890e-02, 0., 0.,
          0., 0., 0., 0., 0., 0., 0., 1.38888890e-02, 1.38888890e-02, 0.,
          0., 1.38888890e-02, 0., 1.38888890e-02, 0., 0., 0.,
          1.38888890e-02, 0., 0., 0., 0., 0., 0., 0., 0., 1.38888890e-02,
          0., 0., 2.77777780e-02, 0., 0., 1.38888890e-02, 0., 0.,
          1.38888890e-02, 0., 0., 0., 0., 4.16666679e-02, 2.77777780e-02,
          0., 0., 1.38888890e-02, 0., 0., 0., 0., 0., 0., 0., 0., 0.,
          1.38888890e-02, 0., 1.38888890e-02, 0., 0., 0., 0.,
          1.38888890e-02, 0., 1.38888890e-02, 0., 0., 0., 1.38888890e-02,
          1.38888890e-02, 0., 0., 1.38888890e-02, 0., 0., 0., 0., 0., 0.,
          0., 0., 0., 0., 0., 0., 0., 1.38888890e-02, 0., 0., 0., 0.,
          1.38888890e-02, 0., 0., 0., 1.38888890e-02, 0., 0., 0., 0., 0.,
          0., 1.38888890e-02, 4.16666679e-02, 0., 0., 0., 1.38888890e-02,
          2.77777780e-02, 0., 4.16666679e-02, 0., 1.38888890e-02, 0., 0.,
          0., 1.38888890e-02, 1.38888890e-02, 0., 0., 0., 1.38888890e-02,
          0., 0., 0., 0., 0., 0., 0., 0., 1.38888890e-02, 1.38888890e-02,
          0., 1.38888890e-02, 1.38888890e-02, 0., 2.77777780e-02,
          1.38888890e-02, 2.77777780e-02, 0., 0., 0., 2.77777780e-02,
          1.38888890e-02, 0., 1.38888890e-02, 0., 0., 0., 0., 0.,
          4.16666679e-02, 1.38888890e-02, 1.38888890e-02, 1.38888890e-02,
          1.38888890e-02, 0., 0., 0., 1.38888890e-02, 0., 0., 0.,
          2.77777780e-02 ]
      - [ 0., 0., 0., 2.38095243e-02, 0., 0., 0., 0., 0., 2.38095243e-02,
          0., 0., 0., 0., 2.38095243e-02, 2.38095243e-02, 0., 0., 0., 0.,
          0., 0., 2.38095243e-02, 0., 0., 0., 2.38095243e-02,
          2.38095243e-02, 2.38095243e-02, 0., 0., 0., 0., 0., 0.,
          2.38095243e-02, 0., 2.38095243e-02, 0., 0., 4.76190485e-02, 0.,
          0., 0., 2.38095243e-02, 0., 0., 0., 0., 0., 0., 0., 0.,
          2.38095243e-02, 0., 0., 0., 0., 0., 2.38095243e-02, 0., 0., 0.,
          0., 0., 0., 0., 0., 0., 0., 4.76190485e-02, 0., 0.,
          2.38095243e-02, 0., 0., 2.38095243e-02, 0., 0., 0., 0.,
          2.38095243e-02, 0., 0., 0., 0., 2.38095243e-02, 0.,
          2.38095243e-02, 0., 2.38095243e-02, 4.76190485e-02, 0., 0., 0.,
          0., 0., 0., 0., 2.38095243e-02, 0., 0., 0., 0., 0., 0., 0., 0.,
          0., 0., 0., 0., 0., 0., 0., 0., 0., 0., 2.38095243e-02,
          2.38095243e-02, 0., 0., 0., 0., 0., 0., 0., 0., 2.38095243e-02,
          0., 0., 0., 0., 0., 0., 0., 2.38095243e-02, 0., 0., 0., 0., 0.,
          2.38095243e-02, 0., 2.38095243e-02, 0., 0., 0., 0., 0., 0., 0.,
          0., 0., 0., 0., 0., 0., 0., 0., 0., 0., 0., 0., 0., 0.,
          2.38095243e-02, 0., 4.76190485e-02, 0., 0., 2.38095243e-02, 0.,
          0., 0., 2.38095243e-02, 0., 0., 0., 0., 0., 0., 0., 0., 0., 0.,
          0., 0., 0., 2.38095243e-02, 2.38095243e-02, 2.38095243e-02, 0.,
          2.38095243e-02, 0., 0., 0., 0., 2.38095243e-02, 0. ]
      - [ 2.08333340e-02, 2.08333340e-02, 0., 0., 0., 2.08333340e-02, 0.,
          0., 0., 2.08333340e-02, 0., 2.08333340e-02, 0., 0.,
          2.08333340e-02, 0., 0., 0., 2.08333340e-02, 2.08333340e-02, 0.,
          0., 2.08333340e-02, 0., 0., 2.08333340e-02, 0., 0., 0., 0., 0.,
          0., 0., 0., 0., 2.08333340e-02, 0., 0., 0., 0., 2.08333340e-02,
          2.08333340e-02, 0., 0., 0., 0., 0., 0., 0., 0., 0., 0., 0., 0.,
          0., 2.08333340e-02, 0., 0., 2.08333340e-02, 4.16666679e-02, 0.,
          0., 2.08333340e-02, 2.08333340e-02, 0., 0., 0., 0., 0.,
          2.08333340e-02, 0., 0., 0., 2.08333340e-02, 0., 0., 0., 0., 0.,
          0., 0., 0., 0., 2.08333340e-02, 0., 0., 2.08333340e-02, 0., 0.,
          0., 0., 0., 0., 0., 0., 4.16666679e-02, 0., 0., 0., 0., 0., 0.,
          0., 2.08333340e-02, 0., 0., 0., 0., 0., 0., 0., 0., 0., 0., 0.,
          0., 0., 0., 0., 2.08333340e-02, 0., 0., 2.08333340e-02, 0.,
          2.08333340e-02, 0., 0., 2.08333340e-02, 0., 0., 0., 0., 0., 0.,
          0., 0., 2.08333340e-02, 2.08333340e-02, 0., 0., 0., 0.,
          2.08333340e-02, 0., 0., 2.08333340e-02, 0., 0., 2.08333340e-02,
          0., 0., 0., 0., 2.08333340e-02, 2.08333340e-02, 0.,
          2.08333340e-02, 0., 0., 0., 0., 0., 2.08333340e-02, 0., 0., 0.,
          2.08333340e-02, 0., 0., 0., 2.08333340e-02, 0., 0., 0.,
          2.08333340e-02, 2.08333340e-02, 0., 0., 2.08333340e-02, 0., 0.,
          0., 0., 0., 0., 0., 0., 0., 0., 0., 0., 0., 0., 0., 0., 0.,
          2.08333340e-02, 2.08333340e-02, 4.16666679e-02, 0. ]
      - [ 2.38095243e-02, 0., 0., 0., 2.38095243e-02, 0., 0., 0., 0., 0.,
          0., 0., 0., 0., 0., 0., 0., 0., 2.38095243e-02, 0., 0., 0., 0.,
          0., 0., 2.38095243e-02, 0., 0., 0., 0., 0., 0., 2.38095243e-02,
          0., 0., 0., 0., 2.38095243e-02, 2.38095243e-02, 0.,
          2.38095243e-02, 0., 0., 0., 0., 0., 0., 0., 2.38095243e-02, 0.,
          0., 0., 0., 2.38095243e-02, 0., 7.14285746e-02, 0., 0.,
          4.76190485e-02, 0., 7.14285746e-02, 0., 0., 0., 0.,
          2.38095243e-02, 2.38095243e-02, 0., 0., 0., 0., 0., 0., 0., 0.,
          0., 0., 0., 0., 2.38095243e-02, 0., 0., 0., 0., 0., 0., 0., 0.,
          2.38095243e-02, 0., 0., 0., 0., 2.38095243e-02, 0., 0., 0., 0.,
          0., 0., 0., 0., 0., 2.38095243e-02, 0., 0., 0., 0., 0., 0.,
          2.38095243e-02, 0., 2.38095243e-02, 0., 0., 0., 0., 0., 0.,
          2.38095243e-02, 0., 0., 0., 0., 0., 0., 0., 0., 2.38095243e-02,
          0., 2.38095243e-02, 0., 0., 0., 0., 0., 0., 0., 2.38095243e-02,
          0., 0., 2.38095243e-02, 0., 2.38095243e-02, 0., 0., 0., 0., 0.,
          0., 0., 2.38095243e-02, 0., 0., 0., 0., 0., 0., 0., 0.,
          2.38095243e-02, 0., 0., 0., 0., 0., 2.38095243e-02, 0., 0., 0.,
          2.38095243e-02, 0., 0., 0., 0., 0., 2.38095243e-02, 0., 0.,
          2.38095243e-02, 0., 0., 0., 2.38095243e-02, 2.38095243e-02,
          2.38095243e-02, 0., 0., 0., 0., 0., 0., 0., 0., 0.,
          2.38095243e-02, 0., 0., 0., 0. ]
      - [ 0., 0., 0., 0., 0., 1.40845068e-02, 0., 0., 0., 0.,
          1.40845068e-02, 0., 0., 0., 0., 1.40845068e-02, 0., 0., 0., 0.,
          0., 0., 0., 0., 1.40845068e-02, 0., 0., 0., 0., 0.,
          1.40845068e-02, 0., 0., 0., 1.40845068e-02, 1.40845068e-02, 0.,
          0., 0., 0., 0., 0., 4.22535203e-02, 0., 0., 0., 2.81690136e-02,
          0., 0., 0., 0., 0., 0., 0., 0., 0., 0., 1.40845068e-02,
          2.81690136e-02, 0., 1.40845068e-02, 0., 1.40845068e-02,
          1.40845068e-02, 0., 0., 0., 0., 1.40845068e-02, 1.40845068e-02,
          0., 0., 1.40845068e-02, 0., 0., 0., 1.40845068e-02, 0.,
          2.81690136e-02, 0., 1.40845068e-02, 1.40845068e-02, 0., 0., 0.,
          0., 2.81690136e-02, 0., 0., 0., 0., 0., 0., 4.22535203e-02, 0.,
          0., 0., 0., 0., 0., 1.40845068e-02, 0., 0., 0., 0.,
          1.40845068e-02, 0., 0., 0., 1.40845068e-02, 0., 0., 0., 0., 0.,
          0., 0., 0., 0., 1.40845068e-02, 1.40845068e-02, 0., 0., 0., 0.,
          0., 0., 1.40845068e-02, 1.40845068e-02, 0., 0., 0., 0., 0.,
          1.40845068e-02, 0., 0., 0., 0., 0., 1.40845068e-02, 0.,
          4.22535203e-02, 1.40845068e-02, 0., 1.40845068e-02, 0., 0.,
          1.40845068e-02, 0., 1.40845068e-02, 0., 0., 1.40845068e-02, 0.,
          0., 0., 0., 2.81690136e-02, 0., 1.40845068e-02, 0., 0.,
          1.40845068e-02, 1.40845068e-02, 0., 0., 0., 1.40845068e-02, 0.,
          0., 0., 0., 0., 1.40845068e-02, 0., 1.40845068e-02,
          4.22535203e-02, 2.81690136e-02, 1.40845068e-02, 2.81690136e-02,
          0., 0., 0., 1.40845068e-02, 2.81690136e-02, 1.40845068e-02, 0.,
          0., 1.40845068e-02, 0., 1.40845068e-02, 0., 0., 0., 0., 0.,
          1.40845068e-02, 0., 0. ]
      - [ 0., 0., 0., 6.81818202e-02, 0., 0., 0., 2.27272734e-02, 0., 0.,
          0., 0., 0., 0., 0., 0., 0., 0., 0., 0., 2.27272734e-02, 0.,
          2.27272734e-02, 0., 0., 0., 0., 0., 0., 2.27272734e-02, 0., 0.,
          0., 0., 0., 0., 0., 2.27272734e-02, 0., 0., 0., 2.27272734e-02,
          0., 0., 0., 0., 2.27272734e-02, 0., 0., 0., 4.54545468e-02,
          2.27272734e-02, 0., 0., 2.27272734e-02, 0., 0., 0., 0., 0., 0.,
          0., 0., 0., 0., 0., 0., 2.27272734e-02, 0., 0., 0., 0.,
          2.27272734e-02, 4.54545468e-02, 0., 0., 0., 0., 2.27272734e-02,
          0., 0., 0., 0., 0., 0., 0., 0., 0., 0., 0., 0., 0., 0., 0., 0.,
          0., 0., 0., 2.27272734e-02, 0., 0., 0., 0., 0., 0.,
          2.27272734e-02, 0., 2.27272734e-02, 0., 2.27272734e-02, 0., 0.,
          0., 0., 0., 0., 0., 0., 2.27272734e-02, 0., 0., 2.27272734e-02,
          0., 0., 2.27272734e-02, 0., 0., 2.27272734e-02, 0.,
          2.27272734e-02, 0., 0., 4.54545468e-02, 0., 2.27272734e-02, 0.,
          0., 0., 0., 0., 0., 0., 0., 0., 0., 0., 0., 0., 0., 0., 0.,
          2.27272734e-02, 2.27272734e-02, 2.27272734e-02, 0., 0., 0., 0.,
          4.54545468e-02, 2.27272734e-02, 0., 0., 0., 0., 0., 0., 0., 0.,
          0., 0., 0., 6.81818202e-02, 0., 0., 0., 2.27272734e-02, 0., 0.,
          0., 0., 0., 0., 0., 0., 0., 0., 0., 0., 0., 2.27272734e-02, 0.,
          2.27272734e-02, 0., 0., 0., 2.27272734e-02, 0., 0., 0., 0. ]
      - [ 0., 0., 0., 0., 0., 0., 2.40963846e-02, 0., 1.20481923e-02, 0.,
          0., 1.20481923e-02, 0., 0., 0., 0., 1.20481923e-02, 0.,
          1.20481923e-02, 0., 1.20481923e-02, 1.20481923e-02, 0.,
          2.40963846e-02, 1.20481923e-02, 0., 0., 0., 0., 0., 0., 0., 0.,
          2.40963846e-02, 1.20481923e-02, 0., 0., 0., 0., 0.,
          1.20481923e-02, 0., 1.20481923e-02, 1.20481923e-02, 0., 0., 0.,
          0., 1.20481923e-02, 0., 0., 0., 0., 0., 0., 1.20481923e-02, 0.,
          0., 1.20481923e-02, 0., 0., 0., 0., 1.20481923e-02, 0.,
          1.20481923e-02, 1.20481923e-02, 0., 0., 0., 0., 0.,
          2.40963846e-02, 0., 0., 0., 0., 1.20481923e-02, 0.,
          1.20481923e-02, 0., 0., 0., 0., 0., 0., 0., 1.20481923e-02, 0.,
          0., 0., 2.40963846e-02, 0., 0., 0., 0., 0., 0., 1.20481923e-02,
          0., 1.20481923e-02, 1.20481923e-02, 1.20481923e-02, 0.,
          1.20481923e-02, 0., 2.40963846e-02, 0., 0., 1.20481923e-02, 0.,
          0., 0., 0., 0., 0., 0., 0., 1.20481923e-02, 0., 0., 0., 0., 0.,
          0., 0., 0., 1.20481923e-02, 3.61445770e-02, 1.20481923e-02, 0.,
          0., 2.40963846e-02, 2.40963846e-02, 0., 1.20481923e-02, 0., 0.,
          0., 1.20481923e-02, 2.40963846e-02, 1.20481923e-02, 0., 0., 0.,
          0., 0., 0., 0., 0., 0., 2.40963846e-02, 4.81927693e-02, 0., 0.,
          1.20481923e-02, 0., 0., 0., 0., 0., 1.20481923e-02, 0., 0., 0.,
          1.20481923e-02, 2.40963846e-02, 1.20481923e-02, 0., 0.,
          1.20481923e-02, 3.61445770e-02, 2.40963846e-02, 1.20481923e-02,
          1.20481923e-02, 2.40963846e-02, 1.20481923e-02, 0.,
          1.20481923e-02, 0., 0., 0., 1.20481923e-02, 0., 1.20481923e-02,
          0., 0., 0., 0., 0., 1.20481923e-02, 0., 0., 1.20481923e-02,
          2.40963846e-02, 0., 0., 0., 0., 0. ]
      - [ 0., 2.43902430e-02, 0., 0., 0., 1.21951215e-02, 1.21951215e-02,
          0., 1.21951215e-02, 0., 0., 2.43902430e-02, 0., 0., 0., 0., 0.,
          1.21951215e-02, 0., 1.21951215e-02, 0., 0., 0., 1.21951215e-02,
          0., 0., 0., 2.43902430e-02, 0., 0., 0., 0., 0., 0., 0., 0., 0.,
          0., 0., 0., 0., 0., 1.21951215e-02, 0., 1.21951215e-02, 0., 0.,
          1.21951215e-02, 1.21951215e-02, 0., 1.21951215e-02, 0., 0., 0.,
          0., 0., 0., 0., 0., 0., 2.43902430e-02, 0., 0., 2.43902430e-02,
          1.21951215e-02, 0., 0., 0., 0., 0., 1.21951215e-02, 0., 0., 0.,
          0., 0., 0., 1.21951215e-02, 0., 0., 1.21951215e-02,
          1.21951215e-02, 0., 0., 1.21951215e-02, 0., 4.87804860e-02, 0.,
          0., 0., 2.43902430e-02, 1.21951215e-02, 9.75609720e-02,
          1.21951215e-02, 0., 0., 0., 0., 1.21951215e-02, 0.,
          1.21951215e-02, 0., 1.21951215e-02, 0., 0., 1.21951215e-02, 0.,
          0., 0., 0., 0., 0., 0., 0., 1.21951215e-02, 0., 0., 0., 0., 0.,
          0., 0., 0., 1.21951215e-02, 0., 0., 0., 1.21951215e-02, 0., 0.,
          1.21951215e-02, 1.21951215e-02, 0., 0., 1.21951215e-02, 0.,
          1.21951215e-02, 0., 0., 1.21951215e-02, 0., 0., 0., 0., 0.,
          1.21951215e-02, 0., 1.21951215e-02, 0., 0., 0., 0., 0., 0.,
          2.43902430e-02, 0., 4.87804860e-02, 0., 3.65853645e-02,
          1.21951215e-02, 0., 0., 0., 1.21951215e-02, 0., 1.21951215e-02,
          0., 0., 0., 1.21951215e-02, 0., 0., 2.43902430e-02,
          1.21951215e-02, 1.21951215e-02, 0., 1.21951215e-02, 0., 0., 0.,
          0., 0., 1.21951215e-02, 0., 0., 0., 0., 1.21951215e-02, 0., 0.,
          0., 1.21951215e-02, 0., 1.21951215e-02, 2.43902430e-02,
          1.21951215e-02, 0., 0., 0., 0. ]
      - [ 0., 0., 1.58730168e-02, 0., 0., 0., 0., 0., 0., 0., 0., 0., 0.,
          1.58730168e-02, 0., 1.58730168e-02, 1.58730168e-02, 0., 0., 0.,
          1.58730168e-02, 1.58730168e-02, 1.58730168e-02, 0., 0., 0., 0.,
          0., 0., 1.58730168e-02, 0., 0., 1.58730168e-02, 0., 0., 0., 0.,
          1.58730168e-02, 0., 0., 1.58730168e-02, 1.58730168e-02, 0., 0.,
          1.58730168e-02, 0., 1.58730168e-02, 0., 1.58730168e-02, 0., 0.,
          1.58730168e-02, 1.58730168e-02, 1.58730168e-02, 0., 0., 0.,
          1.58730168e-02, 1.58730168e-02, 0., 0., 0., 0., 1.58730168e-02,
          0., 0., 1.58730168e-02, 1.58730168e-02, 0., 0., 0., 0.,
          1.58730168e-02, 0., 0., 0., 0., 1.58730168e-02, 1.58730168e-02,
          0., 1.58730168e-02, 1.58730168e-02, 0., 0., 0., 1.58730168e-02,
          0., 0., 1.58730168e-02, 0., 0., 0., 1.58730168e-02, 0., 0., 0.,
          1.58730168e-02, 0., 0., 0., 0., 0., 0., 0., 0., 0., 0., 0., 0.,
          0., 0., 1.58730168e-02, 1.58730168e-02, 1.58730168e-02, 0., 0.,
          0., 0., 1.58730168e-02, 0., 0., 0., 0., 1.58730168e-02,
          1.58730168e-02, 1.58730168e-02, 0., 0., 0., 0., 1.58730168e-02,
          0., 1.58730168e-02, 0., 0., 0., 0., 0., 1.58730168e-02, 0.,
          1.58730168e-02, 1.58730168e-02, 0., 0., 0., 0., 1.58730168e-02,
          0., 0., 0., 0., 0., 0., 0., 0., 0., 0., 0., 0., 0., 0.,
          3.17460336e-02, 0., 0., 1.58730168e-02, 0., 0., 0.,
          1.58730168e-02, 0., 4.76190522e-02, 0., 0., 0., 3.17460336e-02,
          3.17460336e-02, 0., 0., 0., 0., 0., 0., 0., 0., 1.58730168e-02,
          0., 0., 0., 0., 0., 0., 1.58730168e-02, 0., 3.17460336e-02, 0.,
          3.17460336e-02, 0., 0., 0., 1.58730168e-02 ]
      - [ 0., 0., 0., 0., 0., 0., 0., 0., 0., 0., 0., 1.88679248e-02, 0.,
          0., 0., 0., 0., 0., 1.88679248e-02, 0., 0., 0., 0., 0., 0.,
          1.88679248e-02, 0., 1.88679248e-02, 0., 0., 0., 0., 0., 0.,
          1.88679248e-02, 0., 0., 1.88679248e-02, 0., 0., 0., 0.,
          3.77358496e-02, 0., 0., 1.88679248e-02, 0., 0., 0., 0., 0., 0.,
          0., 0., 1.88679248e-02, 0., 0., 1.88679248e-02, 1.88679248e-02,
          0., 0., 0., 1.88679248e-02, 0., 1.88679248e-02, 0.,
          1.88679248e-02, 0., 1.88679248e-02, 1.88679248e-02, 0., 0., 0.,
          0., 0., 0., 0., 0., 3.77358496e-02, 0., 0., 1.88679248e-02,
          1.88679248e-02, 0., 0., 0., 0., 1.88679248e-02, 0.,
          1.88679248e-02, 0., 0., 0., 0., 0., 0., 0., 0., 0., 0.,
          1.88679248e-02, 0., 0., 1.88679248e-02, 0., 0., 0.,
          1.88679248e-02, 0., 0., 3.77358496e-02, 1.88679248e-02, 0., 0.,
          0., 1.88679248e-02, 0., 1.88679248e-02, 0., 0., 1.88679248e-02,
          0., 0., 0., 0., 1.88679248e-02, 0., 0., 1.88679248e-02, 0., 0.,
          0., 0., 0., 0., 0., 0., 0., 0., 0., 1.88679248e-02, 0., 0., 0.,
          5.66037744e-02, 0., 0., 1.88679248e-02, 0., 0., 0., 0., 0., 0.,
          1.88679248e-02, 0., 0., 3.77358496e-02, 3.77358496e-02, 0., 0.,
          0., 0., 0., 0., 0., 0., 1.88679248e-02, 1.88679248e-02, 0., 0.,
          0., 0., 0., 0., 0., 0., 0., 0., 0., 0., 1.88679248e-02, 0., 0.,
          0., 3.77358496e-02, 0., 0., 0., 0., 0., 0., 0., 0., 0., 0.,
          1.88679248e-02, 3.77358496e-02, 0., 1.88679248e-02 ]
      - [ 0., 1.72413792e-02, 0., 0., 0., 0., 3.44827585e-02, 0., 0.,
          1.72413792e-02, 1.72413792e-02, 0., 1.72413792e-02, 0., 0., 0.,
          1.72413792e-02, 0., 1.72413792e-02, 0., 0., 0., 0.,
          1.72413792e-02, 1.72413792e-02, 0., 1.72413792e-02,
          1.72413792e-02, 0., 1.72413792e-02, 0., 0., 0., 0., 0.,
          1.72413792e-02, 3.44827585e-02, 0., 0., 0., 1.72413792e-02, 0.,
          0., 0., 1.72413792e-02, 5.17241359e-02, 0., 0., 0., 0., 0.,
          3.44827585e-02, 0., 0., 1.72413792e-02, 0., 0., 0., 0., 0., 0.,
          0., 0., 0., 0., 0., 0., 0., 1.72413792e-02, 0., 0., 0., 0., 0.,
          0., 0., 0., 0., 0., 0., 0., 0., 1.72413792e-02, 0., 0.,
          1.72413792e-02, 1.72413792e-02, 0., 0., 3.44827585e-02, 0., 0.,
          0., 0., 0., 0., 0., 0., 0., 1.72413792e-02, 0., 0., 0., 0., 0.,
          0., 0., 0., 0., 0., 0., 0., 1.72413792e-02, 0., 0., 0., 0., 0.,
          3.44827585e-02, 0., 0., 0., 0., 0., 3.44827585e-02, 0., 0., 0.,
          0., 0., 0., 0., 0., 1.72413792e-02, 0., 0., 0., 0.,
          6.89655170e-02, 0., 0., 0., 0., 1.72413792e-02, 0., 0., 0.,
          1.72413792e-02, 1.72413792e-02, 0., 0., 1.72413792e-02, 0., 0.,
          1.72413792e-02, 1.72413792e-02, 1.72413792e-02, 0., 0., 0., 0.,
          0., 1.72413792e-02, 0., 0., 0., 0., 1.72413792e-02, 0., 0., 0.,
          0., 0., 1.72413792e-02, 1.72413792e-02, 1.72413792e-02,
          1.72413792e-02, 0., 0., 0., 0., 0., 0., 1.72413792e-02, 0., 0.,
          0., 0., 0., 0., 0., 0., 1.72413792e-02, 1.72413792e-02, 0., 0.,
          1.72413792e-02, 0., 0., 0. ]
      - [ 2.50000004e-02, 0., 0., 0., 0., 0., 5.00000007e-02, 0., 0., 0.,
          0., 0., 0., 0., 0., 0., 0., 0., 0., 2.50000004e-02, 0.,
          2.50000004e-02, 0., 2.50000004e-02, 0., 0., 0., 0., 0., 0., 0.,
          0., 0., 0., 0., 0., 0., 0., 0., 0., 0., 2.50000004e-02, 0.,
          2.50000004e-02, 0., 0., 0., 0., 0., 0., 0., 0., 0., 0.,
          2.50000004e-02, 1.00000001e-01, 2.50000004e-02, 0.,
          2.50000004e-02, 0., 0., 0., 0., 0., 0., 0., 0., 0., 0., 0., 0.,
          2.50000004e-02, 2.50000004e-02, 0., 0., 2.50000004e-02, 0., 0.,
          0., 5.00000007e-02, 0., 0., 2.50000004e-02, 2.50000004e-02, 0.,
          0., 0., 0., 0., 0., 0., 0., 0., 0., 2.50000004e-02, 0., 0., 0.,
          0., 0., 0., 0., 0., 0., 0., 0., 0., 0., 0., 0., 0., 0., 0., 0.,
          2.50000004e-02, 0., 0., 0., 0., 0., 0., 0., 0., 0., 0., 0., 0.,
          2.50000004e-02, 5.00000007e-02, 0., 0., 0., 0., 2.50000004e-02,
          0., 0., 0., 0., 5.00000007e-02, 0., 0., 0., 0., 0.,
          2.50000004e-02, 0., 2.50000004e-02, 0., 0., 0., 0., 0., 0., 0.,
          0., 0., 0., 0., 0., 0., 0., 2.50000004e-02, 0., 0., 0., 0.,
          2.50000004e-02, 0., 0., 2.50000004e-02, 0., 2.50000004e-02, 0.,
          0., 0., 0., 0., 0., 2.50000004e-02, 0., 0., 0., 0., 0., 0., 0.,
          0., 0., 0., 2.50000004e-02, 0., 0., 0., 0., 0., 0., 0., 0.,
          5.00000007e-02, 0. ]
      - [ 0., 0., 0., 0., 0., 0., 5.71428575e-02, 0., 0., 0.,
          2.85714287e-02, 0., 0., 0., 0., 0., 0., 0., 0., 0., 0., 0., 0.,
          2.85714287e-02, 0., 0., 2.85714287e-02, 0., 0., 0., 0., 0., 0.,
          0., 0., 0., 2.85714287e-02, 8.57142881e-02, 0., 0., 0., 0., 0.,
          0., 0., 0., 2.85714287e-02, 0., 0., 0., 2.85714287e-02, 0., 0.,
          0., 0., 2.85714287e-02, 0., 0., 0., 0., 0., 0., 0., 0., 0.,
          2.85714287e-02, 2.85714287e-02, 0., 0., 0., 0., 0., 0., 0.,
          2.85714287e-02, 0., 0., 0., 0., 2.85714287e-02, 0., 0.,
          2.85714287e-02, 0., 0., 0., 0., 0., 0., 0., 0., 0., 0., 0., 0.,
          0., 0., 2.85714287e-02, 0., 0., 0., 0., 0., 0., 0., 0., 0., 0.,
          0., 0., 0., 0., 2.85714287e-02, 0., 0., 2.85714287e-02, 0., 0.,
          2.85714287e-02, 0., 0., 0., 0., 0., 0., 0., 0., 0., 0., 0., 0.,
          0., 0., 0., 0., 0., 0., 0., 5.71428575e-02, 0., 0., 0.,
          5.71428575e-02, 0., 0., 0., 0., 0., 0., 2.85714287e-02, 0., 0.,
          2.85714287e-02, 0., 0., 0., 0., 2.85714287e-02, 0.,
          2.85714287e-02, 0., 0., 0., 0., 0., 0., 0., 0., 0., 0., 0.,
          2.85714287e-02, 0., 0., 0., 0., 0., 2.85714287e-02, 0.,
          5.71428575e-02, 0., 0., 0., 2.85714287e-02, 0., 0., 0., 0., 0.,
          2.85714287e-02, 0., 0., 0., 0., 0., 0., 0., 0., 0., 0. ]
      - [ 0., 0., 0., 0., 0., 0., 0., 0., 2.50000004e-02, 0.,
          2.50000004e-02, 2.50000004e-02, 0., 2.50000004e-02, 0., 0., 0.,
          2.50000004e-02, 2.50000004e-02, 0., 0., 0., 0., 2.50000004e-02,
          0., 0., 0., 2.50000004e-02, 0., 0., 0., 0., 0., 2.50000004e-02,
          2.50000004e-02, 0., 2.50000004e-02, 0., 2.50000004e-02, 0., 0.,
          0., 0., 2.50000004e-02, 0., 0., 0., 0., 0., 0., 0., 0., 0., 0.,
          0., 0., 5.00000007e-02, 0., 0., 2.50000004e-02, 0., 0., 0., 0.,
          0., 0., 0., 0., 0., 0., 0., 0., 0., 0., 0., 0., 0.,
          2.50000004e-02, 0., 0., 0., 0., 0., 0., 0., 0., 0., 0., 0., 0.,
          0., 0., 0., 0., 0., 0., 0., 0., 0., 0., 0., 0., 0., 0.,
          5.00000007e-02, 0., 0., 0., 0., 0., 2.50000004e-02,
          5.00000007e-02, 0., 0., 0., 0., 0., 0., 2.50000004e-02, 0., 0.,
          0., 0., 0., 0., 0., 2.50000004e-02, 2.50000004e-02, 0., 0., 0.,
          0., 0., 5.00000007e-02, 0., 0., 0., 0., 0., 0., 0., 0.,
          5.00000007e-02, 5.00000007e-02, 0., 0., 0., 0., 0., 0., 0., 0.,
          0., 0., 0., 0., 2.50000004e-02, 0., 0., 0., 2.50000004e-02, 0.,
          0., 0., 2.50000004e-02, 0., 0., 0., 0., 0., 0., 0., 0., 0., 0.,
          0., 0., 0., 2.50000004e-02, 0., 2.50000004e-02, 2.50000004e-02,
          0., 0., 0., 0., 0., 0., 0., 0., 0., 2.50000004e-02, 0., 0.,
          2.50000004e-02, 0., 0., 0., 2.50000004e-02, 0. ]
      - [ 0., 0., 0., 0., 0., 2.12765951e-02, 2.12765951e-02, 0., 0., 0.,
          0., 0., 0., 0., 0., 2.12765951e-02, 0., 0., 0., 0., 0., 0., 0.,
          0., 0., 0., 0., 0., 0., 2.12765951e-02, 0., 0., 0., 0., 0., 0.,
          0., 8.51063803e-02, 0., 0., 0., 0., 0., 0., 2.12765951e-02, 0.,
          0., 0., 0., 2.12765951e-02, 2.12765951e-02, 2.12765951e-02, 0.,
          0., 0., 2.12765951e-02, 0., 0., 0., 0., 0., 0., 0., 0., 0., 0.,
          0., 0., 0., 0., 0., 0., 2.12765951e-02, 2.12765951e-02,
          2.12765951e-02, 2.12765951e-02, 0., 0., 0., 0., 0., 0., 0., 0.,
          2.12765951e-02, 0., 0., 0., 0., 0., 0., 0., 0., 0., 0., 0., 0.,
          0., 0., 0., 0., 0., 0., 0., 0., 0., 0., 0., 0., 2.12765951e-02,
          0., 2.12765951e-02, 0., 2.12765951e-02, 0., 0., 0., 0.,
          6.38297871e-02, 0., 0., 0., 0., 0., 4.25531901e-02, 0.,
          2.12765951e-02, 0., 0., 0., 0., 0., 0., 4.25531901e-02, 0., 0.,
          0., 0., 6.38297871e-02, 2.12765951e-02, 0., 4.25531901e-02,
          8.51063803e-02, 0., 0., 0., 0., 0., 0., 4.25531901e-02, 0., 0.,
          0., 0., 0., 0., 2.12765951e-02, 0., 0., 0., 0., 2.12765951e-02,
          0., 2.12765951e-02, 0., 0., 0., 0., 0., 0., 0., 2.12765951e-02,
          0., 0., 0., 0., 0., 0., 0., 0., 0., 2.12765951e-02, 0., 0., 0.,
          0., 0., 0., 0., 0., 0., 0., 0., 0., 0., 0., 0., 0.,
          2.12765951e-02, 0. ]
      - [ 0., 0., 0., 0., 0., 1.36986300e-02, 5.47945201e-02,
          1.36986300e-02, 1.36986300e-02, 0., 0., 0., 1.36986300e-02, 0.,
          0., 0., 0., 0., 1.36986300e-02, 1.36986300e-02, 0., 0., 0.,
          4.10958901e-02, 2.73972601e-02, 6.84931502e-02, 0., 0., 0., 0.,
          2.73972601e-02, 0., 0., 0., 1.36986300e-02, 0., 0., 0., 0., 0.,
          0., 0., 0., 0., 0., 0., 0., 1.36986300e-02, 0., 1.36986300e-02,
          0., 0., 0., 0., 1.36986300e-02, 0., 0., 0., 2.73972601e-02, 0.,
          0., 0., 0., 0., 0., 0., 2.73972601e-02, 1.36986300e-02,
          1.36986300e-02, 2.73972601e-02, 0., 0., 1.36986300e-02, 0., 0.,
          0., 0., 0., 1.36986300e-02, 0., 0., 0., 0., 1.36986300e-02, 0.,
          0., 0., 0., 1.36986300e-02, 0., 0., 0., 0., 1.36986300e-02, 0.,
          0., 0., 0., 1.36986300e-02, 2.73972601e-02, 0., 0., 0.,
          1.36986300e-02, 0., 0., 0., 1.36986300e-02, 0., 0., 0.,
          2.73972601e-02, 0., 0., 0., 0., 1.36986300e-02, 1.36986300e-02,
          0., 0., 1.36986300e-02, 0., 0., 1.36986300e-02, 0., 0., 0.,
          1.36986300e-02, 0., 0., 0., 1.36986300e-02, 0., 1.36986300e-02,
          0., 0., 0., 0., 0., 0., 1.36986300e-02, 0., 0., 2.73972601e-02,
          1.36986300e-02, 0., 0., 1.36986300e-02, 0., 1.36986300e-02, 0.,
          0., 1.36986300e-02, 0., 0., 0., 0., 0., 2.73972601e-02, 0., 0.,
          0., 0., 2.73972601e-02, 0., 0., 2.73972601e-02, 0., 0., 0.,
          2.73972601e-02, 0., 0., 0., 0., 0., 0., 0., 0., 0., 0., 0., 0.,
          0., 0., 0., 0., 0., 0., 1.36986300e-02, 0., 0., 1.36986300e-02,
          0., 0., 0., 0., 0., 2.73972601e-02, 1.36986300e-02 ]
      - [ 0., 2.43902430e-02, 0., 0., 4.87804860e-02, 0., 0., 0.,
          2.43902430e-02, 0., 0., 0., 0., 0., 0., 0., 0., 2.43902430e-02,
          2.43902430e-02, 0., 0., 2.43902430e-02, 0., 0., 0., 0., 0., 0.,
          0., 0., 0., 0., 0., 0., 0., 0., 0., 0., 0., 0., 0.,
          4.87804860e-02, 0., 0., 2.43902430e-02, 0., 2.43902430e-02, 0.,
          0., 0., 0., 0., 0., 0., 0., 0., 0., 2.43902430e-02, 0., 0., 0.,
          0., 0., 0., 0., 2.43902430e-02, 0., 0., 2.43902430e-02, 0.,
          2.43902430e-02, 0., 0., 0., 2.43902430e-02, 0., 0., 0., 0., 0.,
          0., 0., 0., 0., 2.43902430e-02, 0., 0., 0., 0., 0., 0., 0., 0.,
          0., 0., 2.43902430e-02, 0., 2.43902430e-02, 0., 0., 0., 0., 0.,
          0., 0., 0., 0., 0., 2.43902430e-02, 0., 0., 0., 2.43902430e-02,
          0., 2.43902430e-02, 0., 0., 0., 2.43902430e-02, 0.,
          2.43902430e-02, 0., 0., 0., 2.43902430e-02, 0., 2.43902430e-02,
          0., 0., 0., 0., 0., 0., 0., 0., 2.43902430e-02, 0., 0., 0., 0.,
          0., 0., 0., 2.43902430e-02, 0., 0., 0., 0., 0., 4.87804860e-02,
          0., 0., 0., 0., 0., 0., 0., 2.43902430e-02, 0., 0., 0., 0., 0.,
          0., 0., 0., 0., 0., 0., 0., 0., 0., 2.43902430e-02, 0., 0., 0.,
          4.87804860e-02, 2.43902430e-02, 0., 0., 0., 0., 0., 0., 0., 0.,
          0., 0., 0., 0., 2.43902430e-02, 0., 0., 4.87804860e-02,
          2.43902430e-02, 0., 0., 2.43902430e-02, 2.43902430e-02, 0. ]
      - [ 0., 0., 0., 0., 1.53846154e-02, 1.53846154e-02, 0.,
          1.53846154e-02, 1.53846154e-02, 0., 0., 0., 0., 1.53846154e-02,
          0., 0., 0., 0., 0., 0., 0., 0., 0., 0., 1.53846154e-02, 0., 0.,
          4.61538471e-02, 0., 1.53846154e-02, 0., 1.53846154e-02,
          1.53846154e-02, 3.07692308e-02, 0., 4.61538471e-02, 0., 0., 0.,
          0., 0., 0., 1.53846154e-02, 0., 0., 0., 0., 0., 0., 0., 0.,
          1.53846154e-02, 0., 0., 0., 1.53846154e-02, 0., 0., 0.,
          1.53846154e-02, 0., 0., 1.53846154e-02, 0., 0., 0.,
          1.53846154e-02, 0., 0., 0., 1.53846154e-02, 0., 0., 0., 0.,
          1.53846154e-02, 0., 0., 0., 1.53846154e-02, 0., 0., 0.,
          1.53846154e-02, 0., 0., 0., 0., 0., 0., 3.07692308e-02,
          1.53846154e-02, 0., 0., 0., 0., 0., 0., 3.07692308e-02, 0.,
          1.53846154e-02, 0., 0., 1.53846154e-02, 0., 1.53846154e-02, 0.,
          0., 0., 0., 1.53846154e-02, 1.53846154e-02, 0., 0., 0.,
          1.53846154e-02, 4.61538471e-02, 0., 0., 0., 0., 1.53846154e-02,
          0., 0., 1.53846154e-02, 1.53846154e-02, 1.53846154e-02, 0., 0.,
          1.53846154e-02, 0., 0., 0., 0., 0., 0., 0., 1.53846154e-02,
          3.07692308e-02, 0., 1.53846154e-02, 1.53846154e-02, 0., 0., 0.,
          0., 1.53846154e-02, 0., 0., 0., 1.53846154e-02, 1.53846154e-02,
          0., 0., 1.53846154e-02, 0., 0., 0., 0., 1.53846154e-02,
          1.53846154e-02, 0., 0., 0., 0., 0., 0., 1.53846154e-02,
          1.53846154e-02, 1.53846154e-02, 0., 0., 0., 0., 0., 0., 0.,
          1.53846154e-02, 0., 1.53846154e-02, 0., 0., 0., 0., 0., 0., 0.,
          0., 1.53846154e-02, 0., 0., 1.53846154e-02, 0., 0., 0.,
          1.53846154e-02, 0., 0., 0., 0. ]
      - [ 0., 0., 0., 3.57142873e-02, 0., 0., 7.14285746e-02, 0., 0., 0.,
          0., 0., 0., 0., 0., 0., 0., 0., 7.14285746e-02, 0.,
          7.14285746e-02, 0., 0., 0., 0., 3.57142873e-02, 0., 0., 0., 0.,
          3.57142873e-02, 0., 0., 0., 0., 0., 3.57142873e-02, 0., 0.,
          3.57142873e-02, 3.57142873e-02, 0., 0., 0., 0., 0., 0., 0., 0.,
          0., 0., 0., 0., 0., 0., 0., 0., 0., 0., 0., 0., 0.,
          3.57142873e-02, 0., 0., 0., 0., 0., 0., 0., 0., 0.,
          3.57142873e-02, 3.57142873e-02, 0., 0., 0., 0., 0., 0., 0., 0.,
          0., 0., 0., 0., 0., 0., 0., 0., 3.57142873e-02, 0., 0., 0., 0.,
          0., 0., 0., 0., 0., 0., 0., 0., 0., 0., 0., 0., 0., 0., 0., 0.,
          0., 3.57142873e-02, 0., 0., 0., 0., 0., 0., 0., 0., 0., 0., 0.,
          3.57142873e-02, 0., 0., 0., 0., 0., 0., 0., 7.14285746e-02, 0.,
          0., 0., 0., 0., 0., 0., 0., 0., 3.57142873e-02, 0., 0.,
          3.57142873e-02, 0., 0., 0., 0., 0., 3.57142873e-02, 0., 0., 0.,
          0., 0., 0., 0., 0., 0., 3.57142873e-02, 0., 0., 0., 0., 0., 0.,
          0., 0., 0., 0., 0., 0., 0., 0., 0., 0., 0., 0., 3.57142873e-02,
          0., 0., 0., 0., 3.57142873e-02, 0., 0., 0., 0., 0., 0., 0.,
          3.57142873e-02, 0., 0., 0., 3.57142873e-02, 0., 0. ]
      - [ 0., 0., 1.61290318e-02, 0., 1.61290318e-02, 0., 1.61290318e-02,
          0., 0., 0., 0., 4.83870953e-02, 1.61290318e-02, 0., 0., 0., 0.,
          0., 1.61290318e-02, 0., 0., 0., 0., 0., 0., 0., 0.,
          1.61290318e-02, 0., 0., 0., 0., 0., 0., 1.61290318e-02, 0., 0.,
          0., 0., 0., 1.61290318e-02, 0., 1.61290318e-02, 1.61290318e-02,
          3.22580636e-02, 0., 0., 0., 1.61290318e-02, 0., 0., 0., 0.,
          1.61290318e-02, 1.61290318e-02, 1.61290318e-02, 0., 0., 0., 0.,
          0., 0., 0., 1.61290318e-02, 0., 0., 1.61290318e-02, 0., 0.,
          1.61290318e-02, 0., 0., 0., 1.61290318e-02, 0., 0., 0., 0., 0.,
          0., 0., 0., 1.61290318e-02, 3.22580636e-02, 0., 0., 0.,
          1.61290318e-02, 0., 0., 0., 1.61290318e-02, 3.22580636e-02, 0.,
          0., 1.61290318e-02, 0., 0., 0., 0., 1.61290318e-02, 0.,
          1.61290318e-02, 0., 0., 0., 0., 0., 0., 1.61290318e-02, 0.,
          1.61290318e-02, 0., 1.61290318e-02, 0., 0., 0., 0., 0., 0.,
          1.61290318e-02, 0., 0., 0., 0., 0., 0., 3.22580636e-02, 0., 0.,
          0., 0., 0., 1.61290318e-02, 1.61290318e-02, 1.61290318e-02, 0.,
          0., 3.22580636e-02, 0., 0., 0., 0., 0., 0., 0., 1.61290318e-02,
          0., 0., 0., 0., 0., 1.61290318e-02, 1.61290318e-02, 0., 0., 0.,
          0., 0., 0., 0., 0., 0., 0., 0., 0., 0., 3.22580636e-02, 0.,
          3.22580636e-02, 0., 0., 0., 0., 1.61290318e-02, 0., 0., 0., 0.,
          0., 0., 0., 0., 1.61290318e-02, 1.61290318e-02, 0., 0.,
          1.61290318e-02, 0., 1.61290318e-02, 0., 1.61290318e-02,
          1.61290318e-02, 0., 1.61290318e-02, 0., 1.61290318e-02,
          1.61290318e-02, 1.61290318e-02, 0. ]
      - [ 1.61290318e-02, 0., 0., 1.61290318e-02, 0., 0., 1.61290318e-02,
          3.22580636e-02, 0., 0., 0., 0., 0., 1.61290318e-02, 0., 0., 0.,
          0., 0., 0., 0., 3.22580636e-02, 0., 0., 0., 1.61290318e-02, 0.,
          1.61290318e-02, 0., 1.61290318e-02, 0., 0., 1.61290318e-02, 0.,
          0., 0., 0., 0., 0., 0., 0., 0., 0., 3.22580636e-02, 0.,
          4.83870953e-02, 0., 0., 0., 0., 0., 0., 0., 0., 0.,
          1.61290318e-02, 0., 0., 1.61290318e-02, 0., 0., 0.,
          3.22580636e-02, 0., 0., 0., 0., 3.22580636e-02, 0., 0., 0.,
          3.22580636e-02, 0., 0., 0., 0., 0., 0., 1.61290318e-02,
          1.61290318e-02, 0., 0., 0., 0., 1.61290318e-02, 0., 0., 0., 0.,
          1.61290318e-02, 0., 0., 0., 1.61290318e-02, 1.61290318e-02,
          1.61290318e-02, 0., 0., 0., 1.61290318e-02, 4.83870953e-02, 0.,
          0., 0., 1.61290318e-02, 0., 0., 0., 0., 0., 0., 0., 0., 0., 0.,
          3.22580636e-02, 0., 1.61290318e-02, 1.61290318e-02, 0., 0., 0.,
          0., 0., 0., 0., 0., 4.83870953e-02, 1.61290318e-02, 0., 0., 0.,
          0., 0., 0., 0., 1.61290318e-02, 1.61290318e-02, 1.61290318e-02,
          0., 0., 0., 0., 0., 0., 0., 0., 0., 0., 0., 1.61290318e-02, 0.,
          0., 0., 0., 0., 0., 3.22580636e-02, 0., 0., 0., 0., 0., 0., 0.,
          0., 0., 0., 1.61290318e-02, 0., 0., 0., 1.61290318e-02,
          3.22580636e-02, 0., 0., 0., 0., 0., 1.61290318e-02, 0., 0., 0.,
          0., 0., 1.61290318e-02, 0., 0., 0., 1.61290318e-02, 0., 0., 0.,
          0., 1.61290318e-02, 1.61290318e-02, 0., 3.22580636e-02, 0., 0. ]
      - [ 0., 0., 0., 0., 3.57142873e-02, 0., 7.14285746e-02, 0., 0., 0.,
          3.57142873e-02, 0., 0., 0., 0., 0., 0., 0., 0., 0., 0., 0., 0.,
          0., 0., 3.57142873e-02, 0., 0., 0., 0., 0., 0., 0., 0., 0., 0.,
          0., 0., 0., 0., 0., 0., 0., 0., 0., 0., 0., 0., 0., 0., 0., 0.,
          0., 3.57142873e-02, 0., 3.57142873e-02, 0., 0., 0., 0., 0., 0.,
          0., 0., 0., 0., 0., 0., 0., 0., 0., 0., 0., 3.57142873e-02,
          3.57142873e-02, 0., 0., 0., 0., 0., 0., 0., 3.57142873e-02, 0.,
          0., 0., 0., 0., 0., 0., 0., 0., 0., 0., 0., 0., 7.14285746e-02,
          3.57142873e-02, 0., 0., 0., 0., 0., 0., 0., 0., 0., 0., 0., 0.,
          0., 0., 0., 0., 0., 0., 0., 0., 0., 0., 0., 0., 0., 0., 0., 0.,
          3.57142873e-02, 3.57142873e-02, 0., 0., 0., 0., 0., 0., 0.,
          3.57142873e-02, 0., 7.14285746e-02, 0., 0., 0., 3.57142873e-02,
          3.57142873e-02, 3.57142873e-02, 7.14285746e-02, 0., 0., 0., 0.,
          0., 0., 0., 0., 0., 0., 3.57142873e-02, 0., 0., 0., 0., 0., 0.,
          0., 0., 0., 0., 0., 0., 3.57142873e-02, 0., 0., 0., 0., 0., 0.,
          0., 0., 0., 0., 0., 0., 7.14285746e-02, 0., 0., 0., 0., 0., 0.,
          0., 3.57142873e-02, 0., 0., 0., 0., 0., 0., 0., 0., 0., 0. ]
      - [ 1.88679248e-02, 0., 0., 1.88679248e-02, 0., 1.88679248e-02, 0.,
          0., 0., 0., 0., 0., 0., 0., 1.88679248e-02, 0., 0., 0., 0., 0.,
          1.88679248e-02, 1.88679248e-02, 1.88679248e-02, 0., 0., 0., 0.,
          0., 3.77358496e-02, 0., 0., 1.88679248e-02, 3.77358496e-02, 0.,
          1.88679248e-02, 0., 1.88679248e-02, 1.88679248e-02, 0., 0., 0.,
          1.88679248e-02, 0., 1.88679248e-02, 1.88679248e-02, 0., 0., 0.,
          0., 0., 0., 0., 0., 0., 1.88679248e-02, 0., 1.88679248e-02, 0.,
          0., 0., 0., 0., 0., 0., 0., 0., 0., 0., 0., 0., 0., 0., 0., 0.,
          0., 0., 0., 0., 0., 0., 0., 0., 1.88679248e-02, 0., 0.,
          1.88679248e-02, 0., 0., 0., 3.77358496e-02, 0., 0., 0.,
          3.77358496e-02, 0., 0., 0., 0., 1.88679248e-02, 0., 0.,
          1.88679248e-02, 0., 0., 0., 1.88679248e-02, 0., 0.,
          1.88679248e-02, 0., 1.88679248e-02, 1.88679248e-02, 0., 0., 0.,
          0., 1.88679248e-02, 0., 1.88679248e-02, 3.77358496e-02, 0., 0.,
          0., 1.88679248e-02, 0., 0., 0., 0., 0., 0., 0., 0.,
          1.88679248e-02, 0., 0., 0., 0., 1.88679248e-02, 0., 0., 0., 0.,
          0., 0., 0., 0., 0., 0., 0., 0., 0., 0., 1.88679248e-02, 0., 0.,
          0., 1.88679248e-02, 0., 0., 0., 0., 0., 0., 0., 0.,
          1.88679248e-02, 0., 0., 0., 0., 1.88679248e-02, 0., 0., 0., 0.,
          0., 1.88679248e-02, 3.77358496e-02, 0., 0., 0., 1.88679248e-02,
          0., 0., 0., 0., 0., 1.88679248e-02, 1.88679248e-02, 0., 0., 0.,
          3.77358496e-02, 0., 0., 0., 0., 1.88679248e-02, 0.,
          1.88679248e-02 ]
      - [ 0., 0., 0., 1.75438598e-02, 0., 0., 3.50877196e-02, 0.,
          1.75438598e-02, 0., 0., 0., 1.75438598e-02, 0., 0., 0., 0., 0.,
          0., 0., 0., 0., 0., 0., 0., 0., 0., 0., 0., 0., 0., 0., 0., 0.,
          0., 0., 0., 0., 0., 0., 8.77192989e-02, 1.75438598e-02,
          3.50877196e-02, 0., 0., 0., 1.75438598e-02, 1.75438598e-02, 0.,
          0., 0., 1.75438598e-02, 0., 0., 0., 0., 0., 0., 0., 0.,
          1.75438598e-02, 0., 0., 0., 1.75438598e-02, 0., 0., 0.,
          1.75438598e-02, 5.26315793e-02, 0., 0., 0., 0., 0., 0., 0., 0.,
          0., 0., 0., 0., 0., 1.75438598e-02, 1.75438598e-02,
          1.75438598e-02, 3.50877196e-02, 0., 0., 3.50877196e-02, 0., 0.,
          0., 0., 0., 0., 0., 0., 0., 0., 1.75438598e-02, 0., 0.,
          1.75438598e-02, 0., 0., 0., 0., 0., 0., 1.75438598e-02, 0., 0.,
          0., 0., 0., 0., 0., 0., 0., 0., 0., 1.75438598e-02, 0., 0., 0.,
          0., 0., 0., 0., 3.50877196e-02, 0., 0., 0., 0., 0.,
          1.75438598e-02, 0., 5.26315793e-02, 7.01754391e-02, 0., 0., 0.,
          0., 0., 0., 8.77192989e-02, 0., 0., 0., 0., 1.75438598e-02, 0.,
          0., 0., 0., 0., 0., 0., 0., 0., 0., 0., 1.75438598e-02, 0.,
          1.75438598e-02, 0., 0., 0., 1.75438598e-02, 0., 0.,
          1.75438598e-02, 0., 0., 3.50877196e-02, 0., 0., 3.50877196e-02,
          0., 0., 0., 0., 0., 0., 0., 0., 0., 0., 0., 0., 0., 0., 0., 0.,
          0., 0., 0., 0., 0. ]
      - [ 1.40845068e-02, 0., 1.40845068e-02, 0., 0., 2.81690136e-02, 0.,
          1.40845068e-02, 1.40845068e-02, 0., 0., 0., 0., 0., 0., 0., 0.,
          1.40845068e-02, 0., 0., 1.40845068e-02, 0., 0., 4.22535203e-02,
          0., 1.40845068e-02, 0., 0., 0., 0., 1.40845068e-02,
          1.40845068e-02, 0., 0., 0., 1.40845068e-02, 0., 0.,
          1.40845068e-02, 0., 0., 0., 0., 0., 0., 0., 0., 1.40845068e-02,
          0., 0., 1.40845068e-02, 0., 0., 0., 0., 1.40845068e-02, 0., 0.,
          1.40845068e-02, 1.40845068e-02, 0., 0., 0., 0., 0., 0., 0., 0.,
          0., 1.40845068e-02, 1.40845068e-02, 0., 0., 0., 0., 0., 0., 0.,
          0., 0., 0., 1.40845068e-02, 0., 0., 0., 0., 0., 0., 0., 0., 0.,
          0., 0., 1.40845068e-02, 1.40845068e-02, 0., 2.81690136e-02, 0.,
          1.40845068e-02, 0., 1.40845068e-02, 0., 0., 1.40845068e-02,
          1.40845068e-02, 0., 0., 0., 0., 0., 0., 0., 0., 0., 0., 0., 0.,
          0., 0., 1.40845068e-02, 0., 0., 0., 1.40845068e-02, 0., 0., 0.,
          0., 0., 0., 0., 0., 1.40845068e-02, 0., 1.40845068e-02, 0., 0.,
          2.81690136e-02, 0., 1.40845068e-02, 0., 0., 0., 0., 0.,
          4.22535203e-02, 0., 0., 1.40845068e-02, 0., 0., 0.,
          1.40845068e-02, 0., 0., 0., 1.40845068e-02, 0., 1.40845068e-02,
          0., 0., 0., 0., 0., 0., 0., 4.22535203e-02, 0., 1.40845068e-02,
          1.40845068e-02, 2.81690136e-02, 0., 1.40845068e-02, 0., 0.,
          1.40845068e-02, 2.81690136e-02, 1.40845068e-02, 1.40845068e-02,
          1.40845068e-02, 1.40845068e-02, 2.81690136e-02, 0., 0.,
          1.40845068e-02, 4.22535203e-02, 1.40845068e-02, 0., 0.,
          1.40845068e-02, 0., 1.40845068e-02, 0., 1.40845068e-02, 0., 0.,
          0., 0., 0., 0. ]
      - [ 0., 0., 3.92156877e-02, 3.92156877e-02, 0., 0., 0., 0.,
          1.96078438e-02, 0., 0., 0., 0., 0., 0., 0., 0., 0.,
          1.96078438e-02, 0., 0., 0., 0., 0., 0., 1.96078438e-02, 0., 0.,
          0., 0., 0., 0., 1.96078438e-02, 0., 0., 0., 0., 0.,
          1.96078438e-02, 0., 0., 0., 0., 0., 0., 0., 0., 0., 0., 0., 0.,
          0., 0., 0., 0., 0., 0., 0., 0., 1.96078438e-02, 0., 0.,
          1.96078438e-02, 5.88235334e-02, 0., 1.96078438e-02,
          1.96078438e-02, 0., 0., 0., 0., 0., 0., 0., 0., 0., 0., 0., 0.,
          0., 0., 0., 0., 0., 3.92156877e-02, 1.96078438e-02, 0., 0., 0.,
          1.96078438e-02, 0., 0., 1.96078438e-02, 0., 0., 0.,
          1.96078438e-02, 0., 0., 1.96078438e-02, 0., 0., 0., 0., 0., 0.,
          0., 0., 0., 0., 0., 0., 0., 0., 0., 0., 0., 1.96078438e-02, 0.,
          0., 1.96078438e-02, 3.92156877e-02, 1.96078438e-02, 0., 0.,
          1.96078438e-02, 0., 3.92156877e-02, 1.96078438e-02, 0., 0., 0.,
          0., 0., 1.96078438e-02, 0., 0., 1.96078438e-02, 0.,
          1.96078438e-02, 0., 0., 0., 3.92156877e-02, 0., 0.,
          1.96078438e-02, 1.96078438e-02, 1.96078438e-02, 0., 0., 0.,
          1.96078438e-02, 0., 0., 0., 0., 1.96078438e-02, 1.96078438e-02,
          0., 0., 0., 0., 1.96078438e-02, 0., 1.96078438e-02, 0., 0., 0.,
          0., 0., 0., 0., 0., 0., 0., 0., 1.96078438e-02, 0., 0.,
          3.92156877e-02, 0., 0., 0., 0., 1.96078438e-02, 0., 0., 0., 0.,
          1.96078438e-02, 0., 0., 0., 0., 0., 1.96078438e-02, 0., 0., 0. ]
      - [ 0., 0., 0., 0., 0., 0., 1.16279069e-02, 0., 0., 1.16279069e-02,
          1.16279069e-02, 0., 1.16279069e-02, 1.16279069e-02, 0., 0., 0.,
          2.32558139e-02, 1.16279069e-02, 0., 0., 0., 0., 1.16279069e-02,
          1.16279069e-02, 0., 1.16279069e-02, 0., 0., 1.16279069e-02, 0.,
          2.32558139e-02, 0., 1.16279069e-02, 0., 0., 0., 0.,
          1.16279069e-02, 0., 0., 0., 2.32558139e-02, 0., 0., 0., 0.,
          1.16279069e-02, 0., 0., 1.16279069e-02, 0., 0., 0., 0., 0., 0.,
          0., 0., 0., 0., 0., 0., 1.16279069e-02, 1.16279069e-02, 0., 0.,
          1.16279069e-02, 0., 2.32558139e-02, 3.48837227e-02, 0., 0.,
          1.16279069e-02, 0., 1.16279069e-02, 0., 0., 1.16279069e-02, 0.,
          0., 0., 1.16279069e-02, 0., 0., 0., 0., 0., 0., 0.,
          2.32558139e-02, 0., 0., 1.16279069e-02, 0., 1.16279069e-02,
          1.16279069e-02, 0., 1.16279069e-02, 0., 1.16279069e-02, 0., 0.,
          1.16279069e-02, 0., 1.16279069e-02, 3.48837227e-02, 0.,
          2.32558139e-02, 0., 0., 0., 1.16279069e-02, 0., 0., 0., 0., 0.,
          1.16279069e-02, 1.16279069e-02, 3.48837227e-02, 0.,
          1.16279069e-02, 0., 0., 2.32558139e-02, 0., 0., 0., 0., 0.,
          1.16279069e-02, 0., 1.16279069e-02, 0., 0., 0., 1.16279069e-02,
          0., 0., 1.16279069e-02, 1.16279069e-02, 0., 0., 1.16279069e-02,
          0., 0., 0., 0., 0., 0., 0., 1.16279069e-02, 0., 0., 0.,
          1.16279069e-02, 0., 1.16279069e-02, 1.16279069e-02, 0.,
          1.16279069e-02, 0., 2.32558139e-02, 0., 2.32558139e-02, 0.,
          1.16279069e-02, 0., 0., 1.16279069e-02, 0., 0., 1.16279069e-02,
          0., 0., 1.16279069e-02, 0., 1.16279069e-02, 0., 0.,
          1.16279069e-02, 0., 1.16279069e-02, 0., 2.32558139e-02, 0., 0.,
          0., 2.32558139e-02, 0., 0., 2.32558139e-02, 0., 0.,
          1.16279069e-02, 1.16279069e-02, 0., 0., 1.16279069e-02 ]
      - [ 0., 0., 0., 0., 0., 0., 0., 0., 0., 0., 0., 0., 0.,
          1.75438598e-02, 0., 0., 0., 1.75438598e-02, 1.75438598e-02, 0.,
          3.50877196e-02, 0., 0., 0., 0., 0., 0., 0., 0., 0., 0., 0., 0.,
          1.75438598e-02, 1.75438598e-02, 0., 0., 3.50877196e-02, 0.,
          1.75438598e-02, 0., 0., 0., 0., 0., 0., 0., 0., 1.75438598e-02,
          0., 1.75438598e-02, 1.75438598e-02, 0., 1.75438598e-02, 0., 0.,
          0., 0., 0., 0., 1.75438598e-02, 0., 0., 0., 0., 0.,
          1.75438598e-02, 1.75438598e-02, 1.75438598e-02, 0.,
          1.75438598e-02, 0., 0., 0., 0., 0., 0., 0., 0., 1.75438598e-02,
          0., 0., 0., 0., 0., 0., 0., 1.75438598e-02, 1.75438598e-02, 0.,
          0., 1.75438598e-02, 0., 0., 0., 0., 0., 1.75438598e-02, 0., 0.,
          0., 0., 0., 0., 0., 0., 0., 0., 0., 3.50877196e-02, 0., 0.,
          1.75438598e-02, 1.75438598e-02, 1.75438598e-02, 0.,
          1.75438598e-02, 0., 1.75438598e-02, 0., 0., 1.75438598e-02, 0.,
          1.75438598e-02, 0., 0., 0., 0., 1.75438598e-02, 0.,
          1.75438598e-02, 0., 1.75438598e-02, 1.75438598e-02, 0., 0., 0.,
          0., 0., 0., 0., 0., 0., 1.75438598e-02, 0., 1.75438598e-02, 0.,
          0., 0., 0., 0., 1.75438598e-02, 0., 1.75438598e-02,
          1.75438598e-02, 0., 0., 0., 0., 0., 3.50877196e-02, 0., 0., 0.,
          0., 1.75438598e-02, 0., 0., 1.75438598e-02, 0., 0.,
          3.50877196e-02, 1.75438598e-02, 1.75438598e-02, 0., 0., 0.,
          1.75438598e-02, 1.75438598e-02, 0., 0., 0., 0., 1.75438598e-02,
          0., 3.50877196e-02, 0., 0., 0., 0., 0., 0., 0., 0., 0., 0.,
          3.50877196e-02, 0., 0., 0. ]
      - [ 0., 0., 0., 2.98507456e-02, 0., 0., 1.49253728e-02, 0.,
          2.98507456e-02, 0., 0., 0., 1.49253728e-02, 1.49253728e-02, 0.,
          0., 0., 0., 0., 0., 0., 0., 1.49253728e-02, 0., 0., 0.,
          1.49253728e-02, 0., 0., 0., 0., 1.49253728e-02, 1.49253728e-02,
          0., 0., 0., 0., 0., 0., 0., 0., 1.49253728e-02, 0.,
          4.47761193e-02, 0., 0., 0., 0., 0., 0., 1.49253728e-02, 0., 0.,
          1.49253728e-02, 0., 1.49253728e-02, 1.49253728e-02, 0., 0., 0.,
          0., 0., 1.49253728e-02, 0., 0., 0., 0., 0., 0., 0., 0., 0., 0.,
          1.49253728e-02, 0., 0., 0., 0., 0., 0., 1.49253728e-02,
          1.49253728e-02, 0., 0., 0., 0., 0., 1.49253728e-02,
          1.49253728e-02, 0., 2.98507456e-02, 0., 1.49253728e-02, 0.,
          1.49253728e-02, 1.49253728e-02, 2.98507456e-02, 0., 0., 0.,
          1.49253728e-02, 0., 0., 0., 0., 0., 1.49253728e-02,
          1.49253728e-02, 0., 0., 1.49253728e-02, 1.49253728e-02,
          1.49253728e-02, 4.47761193e-02, 0., 0., 0., 0., 1.49253728e-02,
          0., 0., 1.49253728e-02, 2.98507456e-02, 2.98507456e-02, 0., 0.,
          1.49253728e-02, 1.49253728e-02, 1.49253728e-02, 0., 0., 0., 0.,
          1.49253728e-02, 0., 1.49253728e-02, 0., 0., 1.49253728e-02, 0.,
          1.49253728e-02, 0., 1.49253728e-02, 0., 0., 1.49253728e-02, 0.,
          0., 0., 0., 1.49253728e-02, 0., 1.49253728e-02, 0., 0., 0., 0.,
          0., 0., 0., 0., 1.49253728e-02, 0., 0., 0., 0., 1.49253728e-02,
          0., 0., 0., 0., 0., 0., 0., 2.98507456e-02, 0., 0., 0., 0., 0.,
          0., 0., 0., 0., 0., 0., 0., 0., 0., 1.49253728e-02, 0., 0.,
          1.49253728e-02, 0., 0., 2.98507456e-02, 0., 0., 0.,
          1.49253728e-02 ]
      - [ 1.72413792e-02, 0., 0., 0., 0., 0., 0., 0., 0., 0., 0., 0., 0.,
          0., 0., 0., 1.72413792e-02, 0., 0., 0., 1.72413792e-02, 0., 0.,
          0., 0., 0., 0., 0., 1.72413792e-02, 1.72413792e-02, 0., 0., 0.,
          1.72413792e-02, 0., 1.72413792e-02, 0., 5.17241359e-02,
          1.72413792e-02, 0., 0., 0., 0., 0., 3.44827585e-02, 0., 0.,
          1.72413792e-02, 0., 0., 0., 0., 0., 0., 1.72413792e-02, 0., 0.,
          0., 0., 0., 0., 0., 0., 0., 0., 0., 0., 0., 1.72413792e-02, 0.,
          0., 1.72413792e-02, 0., 0., 0., 0., 0., 0., 0., 0., 0., 0., 0.,
          0., 0., 0., 3.44827585e-02, 0., 0., 5.17241359e-02, 0., 0., 0.,
          0., 0., 0., 1.72413792e-02, 0., 0., 0., 0., 0., 0.,
          1.72413792e-02, 0., 0., 0., 0., 0., 0., 1.72413792e-02, 0., 0.,
          1.72413792e-02, 0., 0., 0., 3.44827585e-02, 5.17241359e-02, 0.,
          0., 0., 0., 0., 0., 0., 0., 0., 0., 1.72413792e-02, 0., 0., 0.,
          1.72413792e-02, 1.72413792e-02, 0., 0., 0., 0., 0.,
          1.72413792e-02, 0., 0., 0., 0., 0., 3.44827585e-02, 0., 0., 0.,
          0., 3.44827585e-02, 1.72413792e-02, 1.72413792e-02,
          1.72413792e-02, 1.72413792e-02, 1.72413792e-02, 0.,
          1.72413792e-02, 0., 0., 0., 0., 0., 1.72413792e-02, 0., 0., 0.,
          0., 1.72413792e-02, 8.62068981e-02, 0., 1.72413792e-02, 0., 0.,
          0., 1.72413792e-02, 0., 1.72413792e-02, 0., 1.72413792e-02, 0.,
          0., 0., 0., 0., 0., 1.72413792e-02, 0., 0., 0., 0., 0., 0., 0.,
          1.72413792e-02, 0., 0., 0., 0. ]
      - [ 0., 0., 0., 3.38983051e-02, 0., 0., 0., 0., 0., 0.,
          1.69491526e-02, 0., 0., 0., 0., 0., 1.69491526e-02, 0.,
          1.69491526e-02, 0., 0., 0., 0., 0., 0., 0., 0., 0.,
          1.69491526e-02, 0., 0., 0., 1.69491526e-02, 0., 0.,
          3.38983051e-02, 0., 1.69491526e-02, 0., 0., 3.38983051e-02, 0.,
          1.69491526e-02, 0., 0., 0., 0., 0., 0., 0., 0., 1.69491526e-02,
          0., 1.69491526e-02, 0., 0., 0., 0., 0., 0., 0., 0., 0., 0., 0.,
          0., 0., 0., 0., 0., 1.69491526e-02, 0., 0., 0., 0., 0., 0., 0.,
          0., 0., 1.69491526e-02, 0., 0., 0., 0., 0., 1.69491526e-02, 0.,
          1.69491526e-02, 0., 0., 0., 0., 0., 0., 0., 3.38983051e-02, 0.,
          0., 0., 5.08474559e-02, 3.38983051e-02, 0., 1.69491526e-02, 0.,
          0., 1.69491526e-02, 0., 0., 0., 0., 0., 1.69491526e-02, 0., 0.,
          0., 1.69491526e-02, 0., 1.69491526e-02, 0., 0., 0., 0., 0.,
          3.38983051e-02, 0., 0., 0., 1.69491526e-02, 1.69491526e-02, 0.,
          0., 0., 0., 0., 0., 0., 0., 1.69491526e-02, 1.69491526e-02,
          1.69491526e-02, 0., 0., 1.69491526e-02, 0., 0., 0., 0., 0., 0.,
          0., 3.38983051e-02, 3.38983051e-02, 0., 0., 0., 0., 0., 0., 0.,
          1.69491526e-02, 0., 0., 1.69491526e-02, 0., 0., 1.69491526e-02,
          0., 0., 0., 0., 0., 0., 0., 1.69491526e-02, 0., 0.,
          3.38983051e-02, 0., 0., 1.69491526e-02, 0., 0., 0., 0.,
          1.69491526e-02, 0., 1.69491526e-02, 1.69491526e-02, 0., 0., 0.,
          1.69491526e-02, 0., 3.38983051e-02, 1.69491526e-02, 0.,
          1.69491526e-02, 1.69491526e-02, 0. ]
      - [ 0., 0., 0., 1.96078438e-02, 0., 0., 1.96078438e-02, 0., 0., 0.,
          1.96078438e-02, 0., 0., 1.96078438e-02, 3.92156877e-02, 0.,
          1.96078438e-02, 0., 3.92156877e-02, 0., 1.96078438e-02, 0., 0.,
          0., 0., 0., 0., 1.96078438e-02, 0., 0., 0., 0., 0., 0.,
          1.96078438e-02, 0., 0., 0., 0., 0., 0., 1.96078438e-02, 0., 0.,
          0., 0., 0., 1.96078438e-02, 0., 0., 0., 0., 0., 1.96078438e-02,
          0., 0., 0., 1.96078438e-02, 0., 0., 3.92156877e-02, 0., 0., 0.,
          0., 1.96078438e-02, 0., 0., 0., 0., 0., 0., 0., 0., 0.,
          3.92156877e-02, 0., 0., 0., 0., 0., 1.96078438e-02, 0., 0., 0.,
          0., 0., 0., 1.96078438e-02, 0., 0., 0., 0., 0., 3.92156877e-02,
          0., 0., 0., 0., 0., 3.92156877e-02, 0., 0., 1.96078438e-02, 0.,
          0., 0., 0., 1.96078438e-02, 0., 0., 0., 0., 0., 0., 0.,
          1.96078438e-02, 0., 3.92156877e-02, 0., 0., 0., 0., 0.,
          5.88235334e-02, 0., 0., 1.96078438e-02, 0., 1.96078438e-02, 0.,
          0., 1.96078438e-02, 0., 0., 3.92156877e-02, 0., 0., 0., 0., 0.,
          0., 0., 0., 0., 0., 0., 0., 0., 0., 0., 1.96078438e-02, 0., 0.,
          0., 0., 0., 0., 0., 0., 0., 0., 0., 0., 0., 1.96078438e-02, 0.,
          1.96078438e-02, 0., 0., 0., 0., 1.96078438e-02, 0.,
          1.96078438e-02, 1.96078438e-02, 0., 0., 1.96078438e-02, 0., 0.,
          0., 0., 0., 1.96078438e-02, 0., 0., 0., 0., 0., 0., 0., 0.,
          1.96078438e-02, 0., 3.92156877e-02, 0., 0., 0., 0. ]
      - [ 0., 0., 1.35135138e-02, 0., 0., 0., 0., 2.70270277e-02, 0., 0.,
          0., 0., 0., 1.35135138e-02, 1.35135138e-02, 0., 1.35135138e-02,
          0., 1.35135138e-02, 0., 0., 1.35135138e-02, 1.35135138e-02, 0.,
          0., 0., 0., 0., 0., 0., 0., 0., 0., 1.35135138e-02, 0., 0., 0.,
          2.70270277e-02, 0., 0., 0., 0., 2.70270277e-02, 0.,
          1.35135138e-02, 1.35135138e-02, 0., 0., 1.35135138e-02, 0., 0.,
          0., 0., 0., 0., 1.35135138e-02, 0., 0., 0., 1.35135138e-02,
          1.35135138e-02, 2.70270277e-02, 0., 0., 0., 0., 0.,
          2.70270277e-02, 2.70270277e-02, 0., 0., 0., 1.35135138e-02, 0.,
          0., 0., 0., 0., 0., 1.35135138e-02, 0., 0., 1.35135138e-02, 0.,
          0., 0., 0., 0., 0., 0., 0., 0., 0., 0., 0., 2.70270277e-02, 0.,
          0., 0., 1.35135138e-02, 0., 0., 0., 0., 0., 1.35135138e-02,
          1.35135138e-02, 0., 0., 1.35135138e-02, 1.35135138e-02,
          1.35135138e-02, 0., 0., 1.35135138e-02, 1.35135138e-02, 0., 0.,
          2.70270277e-02, 0., 0., 1.35135138e-02, 0., 0., 0.,
          1.35135138e-02, 1.35135138e-02, 1.35135138e-02, 0.,
          1.35135138e-02, 0., 1.35135138e-02, 0., 1.35135138e-02,
          2.70270277e-02, 2.70270277e-02, 0., 1.35135138e-02, 0.,
          1.35135138e-02, 0., 0., 2.70270277e-02, 0., 0., 0., 0., 0.,
          2.70270277e-02, 0., 0., 0., 0., 2.70270277e-02, 1.35135138e-02,
          0., 0., 0., 0., 0., 0., 1.35135138e-02, 0., 0., 0., 0., 0.,
          1.35135138e-02, 1.35135138e-02, 0., 0., 2.70270277e-02, 0.,
          1.35135138e-02, 0., 1.35135138e-02, 0., 1.35135138e-02, 0., 0.,
          0., 1.35135138e-02, 0., 1.35135138e-02, 0., 0., 0., 0.,
          1.35135138e-02, 0., 0., 1.35135138e-02, 0., 0., 0., 0.,
          1.35135138e-02, 0., 0., 0. ]
      - [ 1.29870130e-02, 0., 2.59740259e-02, 0., 0., 1.29870130e-02,
          1.29870130e-02, 0., 1.29870130e-02, 0., 0., 1.29870130e-02, 0.,
          0., 1.29870130e-02, 0., 1.29870130e-02, 1.29870130e-02,
          1.29870130e-02, 0., 0., 2.59740259e-02, 0., 1.29870130e-02, 0.,
          0., 1.29870130e-02, 1.29870130e-02, 0., 0., 0., 0., 0., 0.,
          1.29870130e-02, 0., 0., 0., 1.29870130e-02, 1.29870130e-02, 0.,
          0., 1.29870130e-02, 1.29870130e-02, 0., 0., 0., 0., 0.,
          1.29870130e-02, 0., 0., 0., 0., 1.29870130e-02, 0., 0., 0., 0.,
          0., 0., 1.29870130e-02, 0., 0., 1.29870130e-02, 0.,
          2.59740259e-02, 0., 0., 0., 1.29870130e-02, 0., 0., 0., 0., 0.,
          0., 0., 1.29870130e-02, 1.29870130e-02, 1.29870130e-02, 0., 0.,
          0., 1.29870130e-02, 0., 0., 0., 0., 0., 2.59740259e-02, 0., 0.,
          1.29870130e-02, 0., 0., 0., 0., 0., 1.29870130e-02, 0., 0., 0.,
          1.29870130e-02, 3.89610380e-02, 0., 0., 0., 0., 1.29870130e-02,
          2.59740259e-02, 1.29870130e-02, 0., 0., 1.29870130e-02,
          1.29870130e-02, 0., 0., 0., 1.29870130e-02, 1.29870130e-02, 0.,
          2.59740259e-02, 0., 0., 1.29870130e-02, 0., 0., 0., 0., 0., 0.,
          0., 0., 1.29870130e-02, 0., 0., 0., 0., 0., 0., 0., 0., 0.,
          1.29870130e-02, 0., 1.29870130e-02, 0., 1.29870130e-02, 0., 0.,
          0., 0., 0., 1.29870130e-02, 0., 1.29870130e-02, 0.,
          1.29870130e-02, 0., 0., 0., 1.29870130e-02, 1.29870130e-02, 0.,
          1.29870130e-02, 0., 0., 0., 0., 1.29870130e-02, 0., 0.,
          2.59740259e-02, 0., 0., 1.29870130e-02, 0., 0., 0.,
          1.29870130e-02, 0., 0., 0., 0., 0., 1.29870130e-02,
          1.29870130e-02, 1.29870130e-02, 1.29870130e-02, 2.59740259e-02,
          0., 1.29870130e-02, 0., 0., 0., 0., 2.59740259e-02,
          1.29870130e-02, 1.29870130e-02 ]
      - [ 1.85185187e-02, 0., 1.85185187e-02, 0., 0., 0., 1.85185187e-02,
          0., 0., 0., 0., 1.85185187e-02, 0., 0., 0., 0., 0., 0., 0., 0.,
          0., 0., 1.85185187e-02, 0., 0., 0., 1.85185187e-02, 0., 0., 0.,
          0., 0., 0., 0., 0., 0., 1.85185187e-02, 1.85185187e-02, 0., 0.,
          0., 0., 0., 1.85185187e-02, 0., 3.70370373e-02, 0., 0.,
          3.70370373e-02, 1.85185187e-02, 1.85185187e-02, 0., 0., 0., 0.,
          0., 0., 0., 1.85185187e-02, 0., 1.85185187e-02, 0., 0., 0.,
          1.85185187e-02, 1.85185187e-02, 0., 3.70370373e-02,
          3.70370373e-02, 0., 1.85185187e-02, 0., 0., 0., 0., 0., 0., 0.,
          0., 1.85185187e-02, 1.85185187e-02, 0., 0., 0., 0.,
          1.85185187e-02, 0., 1.85185187e-02, 0., 0., 1.85185187e-02, 0.,
          0., 0., 0., 0., 0., 0., 0., 0., 0., 0., 0., 0., 1.85185187e-02,
          0., 5.55555560e-02, 0., 0., 0., 0., 0., 1.85185187e-02,
          3.70370373e-02, 0., 0., 0., 0., 1.85185187e-02, 1.85185187e-02,
          0., 0., 0., 0., 0., 0., 0., 0., 0., 0., 0., 0., 0., 0., 0., 0.,
          0., 0., 1.85185187e-02, 0., 0., 0., 3.70370373e-02, 0., 0., 0.,
          0., 0., 0., 0., 0., 0., 1.85185187e-02, 0., 0., 3.70370373e-02,
          0., 0., 0., 0., 0., 0., 0., 0., 0., 0., 0., 0., 0., 0., 0., 0.,
          0., 1.85185187e-02, 0., 0., 1.85185187e-02, 0., 0., 0., 0.,
          1.85185187e-02, 0., 1.85185187e-02, 0., 1.85185187e-02, 0., 0.,
          1.85185187e-02, 0., 0., 0., 0., 1.85185187e-02, 1.85185187e-02,
          0., 0., 0., 0., 3.70370373e-02 ]
      - [ 1.61290318e-02, 0., 1.61290318e-02, 0., 0., 0., 1.61290318e-02,
          0., 1.61290318e-02, 0., 0., 0., 0., 1.61290318e-02, 0., 0., 0.,
          0., 0., 0., 0., 3.22580636e-02, 0., 0., 0., 0., 0.,
          1.61290318e-02, 0., 0., 1.61290318e-02, 1.61290318e-02, 0., 0.,
          1.61290318e-02, 1.61290318e-02, 0., 0., 0., 0., 0.,
          1.61290318e-02, 1.61290318e-02, 1.61290318e-02, 0.,
          1.61290318e-02, 0., 0., 0., 0., 0., 0., 0., 0., 0., 0., 0., 0.,
          0., 0., 0., 1.61290318e-02, 0., 0., 1.61290318e-02, 0.,
          1.61290318e-02, 1.61290318e-02, 1.61290318e-02, 0., 0., 0., 0.,
          0., 0., 0., 0., 3.22580636e-02, 0., 1.61290318e-02, 0., 0., 0.,
          0., 0., 0., 0., 0., 1.61290318e-02, 0., 0., 3.22580636e-02, 0.,
          0., 0., 0., 1.61290318e-02, 0., 0., 0., 0., 0., 0., 0.,
          1.61290318e-02, 0., 0., 0., 0., 0., 0., 1.61290318e-02, 0., 0.,
          0., 0., 0., 0., 0., 0., 0., 0., 3.22580636e-02, 0., 0.,
          3.22580636e-02, 0., 0., 1.61290318e-02, 0., 1.61290318e-02,
          1.61290318e-02, 0., 0., 1.61290318e-02, 0., 0., 0., 0., 0.,
          1.61290318e-02, 0., 0., 1.61290318e-02, 0., 1.61290318e-02, 0.,
          0., 0., 0., 0., 0., 0., 0., 0., 1.61290318e-02, 0.,
          1.61290318e-02, 0., 0., 0., 4.83870953e-02, 1.61290318e-02, 0.,
          0., 1.61290318e-02, 4.83870953e-02, 0., 3.22580636e-02, 0., 0.,
          0., 1.61290318e-02, 3.22580636e-02, 1.61290318e-02, 0.,
          1.61290318e-02, 0., 0., 0., 0., 0., 0., 0., 0., 0., 0.,
          1.61290318e-02, 0., 0., 1.61290318e-02, 1.61290318e-02, 0., 0.,
          0., 0., 0., 0., 1.61290318e-02, 0. ]
      - [ 0., 0., 0., 0., 0., 0., 2.32558139e-02, 0., 0., 2.32558139e-02,
          2.32558139e-02, 0., 0., 0., 0., 2.32558139e-02, 2.32558139e-02,
          4.65116277e-02, 2.32558139e-02, 0., 2.32558139e-02, 0., 0., 0.,
          2.32558139e-02, 0., 0., 2.32558139e-02, 0., 0., 0., 0., 0., 0.,
          0., 4.65116277e-02, 4.65116277e-02, 0., 0., 4.65116277e-02, 0.,
          0., 0., 0., 0., 0., 0., 0., 0., 0., 0., 0., 0., 0., 0.,
          4.65116277e-02, 0., 0., 0., 0., 0., 0., 0., 0., 2.32558139e-02,
          0., 0., 0., 0., 0., 0., 0., 0., 0., 4.65116277e-02, 0., 0., 0.,
          0., 0., 0., 0., 2.32558139e-02, 0., 0., 0., 0., 0., 0.,
          2.32558139e-02, 0., 0., 0., 0., 0., 0., 0., 2.32558139e-02, 0.,
          0., 0., 0., 0., 2.32558139e-02, 0., 0., 0., 2.32558139e-02, 0.,
          0., 0., 0., 0., 0., 0., 0., 0., 2.32558139e-02, 0., 0., 0., 0.,
          0., 0., 0., 0., 0., 0., 0., 0., 0., 0., 2.32558139e-02, 0., 0.,
          0., 0., 2.32558139e-02, 0., 0., 0., 0., 0., 0., 0., 0., 0., 0.,
          2.32558139e-02, 0., 0., 0., 0., 0., 0., 2.32558139e-02, 0., 0.,
          0., 0., 0., 4.65116277e-02, 0., 0., 0., 0., 0., 0.,
          2.32558139e-02, 0., 0., 0., 0., 0., 2.32558139e-02,
          2.32558139e-02, 0., 0., 0., 0., 2.32558139e-02, 0., 0., 0., 0.,
          0., 2.32558139e-02, 2.32558139e-02, 2.32558139e-02, 0., 0., 0.,
          0., 0., 2.32558139e-02, 0., 0., 2.32558139e-02, 0., 0. ]
      - [ 0., 0., 2.22222228e-02, 0., 0., 0., 0., 0., 0., 0., 0., 0., 0.,
          0., 0., 0., 0., 0., 2.22222228e-02, 0., 0., 0., 2.22222228e-02,
          0., 0., 0., 2.22222228e-02, 0., 0., 0., 0., 0., 0., 0., 0., 0.,
          0., 2.22222228e-02, 0., 0., 4.44444455e-02, 0., 0., 0., 0.,
          2.22222228e-02, 0., 0., 0., 2.22222228e-02, 0., 0., 0., 0., 0.,
          2.22222228e-02, 0., 0., 0., 0., 0., 0., 0., 0., 0., 0.,
          2.22222228e-02, 0., 0., 0., 2.22222228e-02, 0., 0.,
          2.22222228e-02, 0., 0., 0., 0., 0., 2.22222228e-02, 0., 0., 0.,
          0., 0., 0., 0., 0., 0., 0., 0., 0., 0., 0., 0., 2.22222228e-02,
          0., 0., 0., 2.22222228e-02, 0., 0., 0., 0., 0., 0., 0., 0., 0.,
          0., 0., 0., 2.22222228e-02, 0., 2.22222228e-02, 0., 0., 0., 0.,
          0., 2.22222228e-02, 0., 0., 0., 0., 2.22222228e-02, 0., 0., 0.,
          0., 2.22222228e-02, 6.66666701e-02, 0., 2.22222228e-02,
          2.22222228e-02, 0., 2.22222228e-02, 0., 4.44444455e-02,
          2.22222228e-02, 0., 2.22222228e-02, 2.22222228e-02, 0., 0., 0.,
          0., 0., 0., 0., 0., 0., 0., 2.22222228e-02, 0., 0., 0., 0.,
          2.22222228e-02, 0., 0., 0., 0., 2.22222228e-02, 0.,
          2.22222228e-02, 0., 2.22222228e-02, 0., 0., 0., 0., 0.,
          2.22222228e-02, 2.22222228e-02, 0., 0., 0., 0., 0.,
          2.22222228e-02, 0., 0., 0., 0., 0., 0., 0., 0., 2.22222228e-02,
          0., 2.22222228e-02, 0., 2.22222228e-02, 0., 4.44444455e-02, 0.,
          0., 0., 0. ]
      - [ 1.78571437e-02, 1.78571437e-02, 0., 1.78571437e-02, 0., 0., 0.,
          0., 1.78571437e-02, 0., 0., 0., 0., 0., 0., 0., 0., 0.,
          1.78571437e-02, 0., 0., 1.78571437e-02, 0., 0., 0., 0., 0., 0.,
          0., 1.78571437e-02, 1.78571437e-02, 0., 0., 0., 0., 0., 0., 0.,
          1.78571437e-02, 0., 0., 1.78571437e-02, 0., 0., 0., 0., 0., 0.,
          0., 0., 0., 0., 0., 0., 0., 0., 0., 0., 1.78571437e-02,
          1.78571437e-02, 0., 0., 1.78571437e-02, 0., 0., 0., 0., 0.,
          1.78571437e-02, 0., 0., 0., 1.78571437e-02, 0., 0., 0., 0., 0.,
          0., 1.78571437e-02, 0., 0., 0., 0., 1.78571437e-02,
          1.78571437e-02, 0., 0., 1.78571437e-02, 0., 0., 0., 0.,
          3.57142873e-02, 1.78571437e-02, 0., 0., 0., 0., 0.,
          1.78571437e-02, 0., 0., 0., 0., 1.78571437e-02, 0., 0., 0., 0.,
          0., 0., 1.78571437e-02, 1.78571437e-02, 0., 0., 0., 0.,
          1.78571437e-02, 0., 0., 1.78571437e-02, 0., 0., 0., 0., 0., 0.,
          0., 0., 0., 3.57142873e-02, 0., 0., 0., 0., 0., 3.57142873e-02,
          0., 0., 1.78571437e-02, 0., 7.14285746e-02, 5.35714328e-02, 0.,
          0., 0., 0., 0., 0., 0., 0., 1.78571437e-02, 0., 0., 0., 0.,
          1.78571437e-02, 1.78571437e-02, 0., 0., 0., 0., 0., 0., 0., 0.,
          0., 0., 0., 0., 0., 3.57142873e-02, 0., 0., 0., 0., 0.,
          3.57142873e-02, 0., 1.78571437e-02, 0., 0., 0., 0., 0., 0., 0.,
          0., 0., 0., 1.78571437e-02, 0., 1.78571437e-02, 0.,
          7.14285746e-02, 0., 0., 0., 3.57142873e-02 ]
      - [ 1.47058824e-02, 1.47058824e-02, 0., 0., 1.47058824e-02, 0., 0.,
          0., 1.47058824e-02, 4.41176482e-02, 1.47058824e-02, 0., 0., 0.,
          1.47058824e-02, 0., 0., 1.47058824e-02, 2.94117648e-02, 0., 0.,
          1.47058824e-02, 0., 1.47058824e-02, 1.47058824e-02, 0., 0., 0.,
          0., 0., 0., 0., 0., 0., 0., 1.47058824e-02, 0., 1.47058824e-02,
          0., 0., 0., 0., 0., 1.47058824e-02, 0., 0., 0., 1.47058824e-02,
          0., 0., 0., 0., 0., 0., 0., 0., 0., 0., 0., 0., 0., 0., 0., 0.,
          0., 1.47058824e-02, 0., 0., 0., 0., 1.47058824e-02,
          1.47058824e-02, 1.47058824e-02, 0., 0., 0., 0., 0., 0., 0.,
          1.47058824e-02, 0., 0., 0., 0., 0., 1.47058824e-02, 0., 0., 0.,
          0., 1.47058824e-02, 0., 0., 0., 2.94117648e-02, 2.94117648e-02,
          0., 1.47058824e-02, 1.47058824e-02, 0., 0., 0., 0., 0.,
          1.47058824e-02, 0., 0., 0., 0., 0., 1.47058824e-02, 0., 0.,
          1.47058824e-02, 0., 0., 0., 0., 0., 0., 1.47058824e-02,
          1.47058824e-02, 1.47058824e-02, 0., 0., 0., 2.94117648e-02,
          4.41176482e-02, 1.47058824e-02, 1.47058824e-02, 0., 0., 0., 0.,
          0., 0., 0., 0., 0., 1.47058824e-02, 0., 1.47058824e-02,
          1.47058824e-02, 1.47058824e-02, 0., 0., 0., 1.47058824e-02,
          1.47058824e-02, 0., 0., 0., 0., 1.47058824e-02, 0., 0., 0.,
          1.47058824e-02, 1.47058824e-02, 0., 0., 0., 0., 0., 0., 0., 0.,
          0., 0., 0., 2.94117648e-02, 0., 0., 0., 0., 1.47058824e-02, 0.,
          0., 0., 0., 2.94117648e-02, 0., 0., 0., 0., 1.47058824e-02, 0.,
          1.47058824e-02, 1.47058824e-02, 0., 2.94117648e-02, 0., 0.,
          1.47058824e-02, 0., 0., 0., 2.94117648e-02, 1.47058824e-02 ]
      - [ 0., 2.56410260e-02, 0., 0., 0., 0., 5.12820520e-02, 0., 0., 0.,
          2.56410260e-02, 0., 0., 0., 0., 0., 0., 0., 0., 0., 0.,
          5.12820520e-02, 0., 0., 2.56410260e-02, 2.56410260e-02, 0., 0.,
          0., 0., 0., 0., 0., 0., 0., 0., 0., 7.69230798e-02, 0., 0., 0.,
          0., 2.56410260e-02, 0., 0., 0., 0., 0., 0., 0., 0., 0., 0., 0.,
          2.56410260e-02, 0., 0., 0., 2.56410260e-02, 0., 2.56410260e-02,
          0., 0., 0., 0., 0., 0., 0., 0., 0., 0., 0., 0., 0., 0., 0.,
          5.12820520e-02, 0., 0., 2.56410260e-02, 0., 0., 2.56410260e-02,
          0., 2.56410260e-02, 0., 0., 0., 0., 0., 0., 0., 0., 0., 0., 0.,
          0., 0., 0., 0., 0., 0., 0., 0., 2.56410260e-02, 0., 0., 0.,
          2.56410260e-02, 0., 0., 0., 0., 0., 0., 0., 0., 0., 0.,
          2.56410260e-02, 0., 0., 0., 2.56410260e-02, 0., 0., 0., 0.,
          2.56410260e-02, 0., 0., 0., 0., 0., 0., 2.56410260e-02,
          2.56410260e-02, 0., 0., 0., 2.56410260e-02, 0., 5.12820520e-02,
          0., 0., 2.56410260e-02, 0., 0., 0., 0., 0., 0., 0., 0., 0., 0.,
          2.56410260e-02, 0., 0., 0., 2.56410260e-02, 2.56410260e-02, 0.,
          0., 0., 0., 0., 0., 0., 0., 0., 0., 5.12820520e-02, 0., 0., 0.,
          0., 0., 0., 0., 0., 0., 0., 0., 0., 0., 0., 0., 0., 0.,
          2.56410260e-02, 0., 2.56410260e-02, 0., 0., 0., 0., 0.,
          2.56410260e-02, 0. ]
      - [ 0., 0., 0., 0., 0., 3.84615399e-02, 0., 0., 3.84615399e-02, 0.,
          3.84615399e-02, 0., 0., 0., 0., 0., 0., 0., 0., 0.,
          7.69230798e-02, 0., 0., 0., 0., 0., 0., 0., 0., 0., 0., 0., 0.,
          0., 0., 0., 0., 1.15384623e-01, 0., 0., 0., 0., 0., 0., 0., 0.,
          0., 0., 0., 0., 0., 0., 0., 0., 0., 0., 3.84615399e-02, 0., 0.,
          0., 3.84615399e-02, 0., 0., 0., 0., 0., 0., 0., 0., 0., 0., 0.,
          0., 0., 0., 0., 0., 0., 0., 0., 0., 0., 3.84615399e-02, 0., 0.,
          0., 0., 0., 0., 0., 0., 0., 0., 0., 0., 0., 0., 0., 0., 0., 0.,
          0., 0., 0., 0., 0., 0., 0., 0., 0., 0., 0., 0., 0., 0., 0.,
          3.84615399e-02, 0., 3.84615399e-02, 0., 0., 0., 0., 0., 0., 0.,
          0., 0., 0., 0., 0., 0., 0., 3.84615399e-02, 0., 0., 0., 0.,
          3.84615399e-02, 0., 0., 3.84615399e-02, 0., 3.84615399e-02, 0.,
          0., 0., 0., 3.84615399e-02, 0., 0., 0., 1.15384623e-01, 0., 0.,
          0., 0., 0., 0., 0., 0., 0., 0., 0., 0., 0., 0., 0., 0., 0., 0.,
          3.84615399e-02, 0., 0., 0., 0., 0., 3.84615399e-02, 0.,
          7.69230798e-02, 0., 0., 0., 0., 0., 0., 0., 0., 0., 0., 0., 0.,
          0., 0., 0., 0., 0., 0., 3.84615399e-02, 0. ]
      - [ 0., 1.69491526e-02, 0., 5.08474559e-02, 0., 0., 3.38983051e-02,
          0., 0., 0., 0., 0., 0., 0., 0., 0., 0., 0., 0., 0., 0., 0., 0.,
          0., 0., 1.69491526e-02, 0., 0., 0., 1.69491526e-02, 0., 0., 0.,
          0., 0., 1.69491526e-02, 0., 0., 1.69491526e-02, 3.38983051e-02,
          1.69491526e-02, 0., 3.38983051e-02, 1.69491526e-02,
          1.69491526e-02, 0., 0., 0., 0., 0., 1.69491526e-02,
          1.69491526e-02, 0., 0., 0., 0., 0., 1.69491526e-02, 0., 0., 0.,
          0., 0., 0., 0., 0., 1.69491526e-02, 0., 0., 0., 0., 0., 0., 0.,
          0., 1.69491526e-02, 1.69491526e-02, 0., 0., 0., 1.69491526e-02,
          0., 1.69491526e-02, 0., 0., 0., 1.69491526e-02, 0., 0., 0., 0.,
          0., 0., 0., 1.69491526e-02, 1.69491526e-02, 0., 0., 0., 0.,
          1.69491526e-02, 0., 0., 0., 1.69491526e-02, 0., 0., 0., 0.,
          1.69491526e-02, 0., 0., 0., 0., 0., 0., 0., 0., 1.69491526e-02,
          0., 0., 1.69491526e-02, 0., 0., 3.38983051e-02, 0., 0., 0.,
          1.69491526e-02, 1.69491526e-02, 0., 0., 0., 1.69491526e-02, 0.,
          0., 0., 0., 0., 0., 0., 0., 3.38983051e-02, 0., 0., 0.,
          1.69491526e-02, 0., 1.69491526e-02, 1.69491526e-02, 0.,
          1.69491526e-02, 3.38983051e-02, 0., 0., 0., 0., 0.,
          1.69491526e-02, 1.69491526e-02, 0., 0., 0., 0., 0.,
          1.69491526e-02, 0., 0., 1.69491526e-02, 0., 0., 0.,
          1.69491526e-02, 1.69491526e-02, 1.69491526e-02, 1.69491526e-02,
          0., 0., 0., 1.69491526e-02, 0., 0., 0., 0., 0., 0., 0., 0., 0.,
          0., 0., 1.69491526e-02, 1.69491526e-02, 0., 0., 0., 0., 0.,
          1.69491526e-02, 1.69491526e-02 ]
      - [ 1.28205130e-02, 0., 0., 1.15384616e-01, 1.28205130e-02, 0., 0.,
          0., 3.84615399e-02, 0., 1.28205130e-02, 0., 0., 1.28205130e-02,
          0., 1.28205130e-02, 0., 0., 1.28205130e-02, 0., 0.,
          1.28205130e-02, 6.41025677e-02, 1.28205130e-02, 0., 0., 0., 0.,
          0., 1.28205130e-02, 0., 0., 3.84615399e-02, 1.28205130e-02, 0.,
          0., 0., 1.28205130e-02, 0., 0., 2.56410260e-02, 0., 0., 0., 0.,
          0., 3.84615399e-02, 1.28205130e-02, 0., 0., 1.28205130e-02, 0.,
          0., 0., 0., 0., 0., 0., 0., 0., 0., 0., 0., 0., 0., 0., 0., 0.,
          0., 0., 0., 1.28205130e-02, 0., 0., 0., 0., 0., 1.28205130e-02,
          0., 0., 0., 1.28205130e-02, 0., 0., 0., 0., 0., 0., 0.,
          2.56410260e-02, 0., 0., 0., 0., 0., 0., 0., 0., 0., 0.,
          2.56410260e-02, 0., 0., 0., 0., 0., 0., 0., 0., 1.28205130e-02,
          5.12820520e-02, 0., 1.28205130e-02, 1.28205130e-02,
          1.28205130e-02, 0., 1.28205130e-02, 0., 0., 0., 1.28205130e-02,
          0., 0., 0., 2.56410260e-02, 0., 1.28205130e-02, 0., 0., 0., 0.,
          0., 0., 0., 0., 0., 0., 0., 0., 1.28205130e-02, 0.,
          1.28205130e-02, 0., 0., 0., 0., 2.56410260e-02, 0.,
          1.28205130e-02, 0., 0., 7.69230798e-02, 1.28205130e-02,
          1.28205130e-02, 1.28205130e-02, 0., 0., 0., 0., 0., 0., 0., 0.,
          0., 2.56410260e-02, 0., 0., 0., 0., 0., 0., 0., 0., 0.,
          1.28205130e-02, 0., 0., 0., 0., 0., 0., 0., 0., 0., 0., 0., 0.,
          1.28205130e-02, 1.28205130e-02, 0., 0., 0., 0., 0., 0., 0.,
          1.28205130e-02, 0., 0., 0. ]
      - [ 1.75438598e-02, 1.75438598e-02, 0., 3.50877196e-02, 0.,
          1.75438598e-02, 0., 0., 1.75438598e-02, 0., 0., 0., 0., 0., 0.,
          0., 1.75438598e-02, 0., 1.75438598e-02, 1.75438598e-02, 0., 0.,
          0., 0., 0., 0., 0., 0., 0., 1.75438598e-02, 1.75438598e-02, 0.,
          1.75438598e-02, 1.75438598e-02, 3.50877196e-02, 0., 0.,
          1.75438598e-02, 1.75438598e-02, 0., 0., 0., 0., 0., 0.,
          1.75438598e-02, 0., 0., 0., 0., 1.75438598e-02, 1.75438598e-02,
          3.50877196e-02, 0., 0., 0., 0., 0., 0., 0., 0., 0., 0., 0., 0.,
          0., 0., 1.75438598e-02, 0., 0., 0., 0., 1.75438598e-02, 0., 0.,
          0., 0., 0., 0., 3.50877196e-02, 0., 0., 1.75438598e-02, 0., 0.,
          0., 0., 0., 0., 0., 0., 0., 0., 1.75438598e-02, 0., 0., 0., 0.,
          0., 0., 0., 0., 3.50877196e-02, 3.50877196e-02, 0.,
          1.75438598e-02, 0., 0., 0., 0., 3.50877196e-02, 0.,
          1.75438598e-02, 0., 0., 0., 0., 0., 0., 0., 0., 0., 0., 0., 0.,
          0., 0., 1.75438598e-02, 0., 1.75438598e-02, 0., 0.,
          1.75438598e-02, 0., 0., 0., 1.75438598e-02, 0., 5.26315793e-02,
          0., 0., 0., 0., 0., 0., 0., 0., 0., 0., 0., 1.75438598e-02, 0.,
          3.50877196e-02, 1.75438598e-02, 0., 1.75438598e-02, 0., 0., 0.,
          0., 0., 0., 0., 1.75438598e-02, 1.75438598e-02, 1.75438598e-02,
          0., 0., 0., 0., 0., 0., 0., 0., 1.75438598e-02, 0., 0.,
          1.75438598e-02, 0., 0., 0., 0., 0., 0., 1.75438598e-02, 0., 0.,
          0., 1.75438598e-02, 1.75438598e-02, 0., 0., 0., 0., 0.,
          1.75438598e-02, 0., 0., 0., 0. ]
      - [ 0., 0., 0., 0., 0., 0., 1.96078438e-02, 0., 1.96078438e-02,
          1.96078438e-02, 0., 0., 0., 1.96078438e-02, 0., 0.,
          1.96078438e-02, 0., 0., 0., 0., 0., 0., 0., 0., 0., 0.,
          1.96078438e-02, 0., 0., 1.96078438e-02, 0., 0., 0., 0., 0.,
          1.96078438e-02, 0., 0., 0., 0., 0., 5.88235334e-02, 0., 0.,
          1.96078438e-02, 3.92156877e-02, 0., 1.96078438e-02, 0.,
          1.96078438e-02, 0., 0., 0., 1.96078438e-02, 0., 0., 0., 0.,
          1.96078438e-02, 1.96078438e-02, 0., 0., 0., 0., 0., 0., 0., 0.,
          0., 0., 0., 0., 0., 0., 0., 0., 0., 1.96078438e-02, 0., 0., 0.,
          0., 0., 0., 1.96078438e-02, 0., 0., 0., 0., 0., 0., 0.,
          1.96078438e-02, 0., 0., 0., 0., 0., 0., 1.96078438e-02, 0., 0.,
          3.92156877e-02, 0., 0., 0., 0., 0., 0., 1.96078438e-02, 0., 0.,
          1.96078438e-02, 1.96078438e-02, 0., 0., 0., 7.84313753e-02,
          1.96078438e-02, 1.96078438e-02, 0., 0., 0., 1.96078438e-02,
          3.92156877e-02, 0., 0., 0., 0., 0., 1.96078438e-02, 0., 0., 0.,
          0., 0., 0., 0., 0., 0., 1.96078438e-02, 3.92156877e-02, 0., 0.,
          0., 0., 0., 0., 0., 0., 0., 0., 0., 0., 3.92156877e-02, 0., 0.,
          0., 0., 0., 1.96078438e-02, 1.96078438e-02, 1.96078438e-02, 0.,
          0., 0., 0., 0., 0., 1.96078438e-02, 1.96078438e-02, 0., 0., 0.,
          0., 0., 0., 1.96078438e-02, 0., 0., 0., 0., 0., 0., 0., 0., 0.,
          0., 0., 0., 0., 0., 1.96078438e-02, 1.96078438e-02, 0., 0., 0.,
          0., 0. ]
      - [ 2.04081628e-02, 0., 0., 0., 0., 4.08163257e-02, 0., 0., 0.,
          2.04081628e-02, 2.04081628e-02, 0., 0., 2.04081628e-02, 0., 0.,
          0., 0., 2.04081628e-02, 0., 0., 0., 0., 2.04081628e-02, 0., 0.,
          0., 0., 2.04081628e-02, 0., 0., 0., 0., 0., 0., 2.04081628e-02,
          2.04081628e-02, 2.04081628e-02, 0., 0., 0., 0., 0.,
          4.08163257e-02, 0., 0., 0., 0., 0., 0., 0., 0., 0., 0., 0., 0.,
          0., 0., 0., 0., 0., 4.08163257e-02, 2.04081628e-02, 0., 0.,
          2.04081628e-02, 2.04081628e-02, 0., 0., 0., 0., 0., 0., 0., 0.,
          2.04081628e-02, 0., 0., 0., 0., 0., 0., 4.08163257e-02, 0., 0.,
          0., 0., 0., 0., 0., 0., 0., 0., 0., 0., 2.04081628e-02, 0., 0.,
          0., 0., 0., 0., 2.04081628e-02, 0., 0., 0., 0., 2.04081628e-02,
          2.04081628e-02, 0., 0., 2.04081628e-02, 0., 0., 0., 0., 0., 0.,
          2.04081628e-02, 0., 0., 0., 0., 0., 0., 0., 4.08163257e-02, 0.,
          0., 2.04081628e-02, 0., 0., 0., 0., 2.04081628e-02, 0.,
          2.04081628e-02, 0., 0., 0., 0., 2.04081628e-02, 0., 0., 0., 0.,
          0., 2.04081628e-02, 0., 0., 0., 0., 2.04081628e-02, 0., 0., 0.,
          0., 0., 2.04081628e-02, 0., 0., 0., 0., 0., 0., 0., 0., 0., 0.,
          0., 0., 8.16326514e-02, 0., 0., 0., 0., 0., 0., 0., 0., 0.,
          2.04081628e-02, 0., 4.08163257e-02, 0., 2.04081628e-02, 0.,
          2.04081628e-02, 0., 2.04081628e-02, 0., 2.04081628e-02, 0., 0.,
          0., 0., 0., 0., 0., 2.04081628e-02 ]
      - [ 0., 0., 1.78571437e-02, 0., 0., 0., 1.78571437e-02, 0., 0., 0.,
          0., 0., 1.78571437e-02, 1.78571437e-02, 0., 0., 0., 0.,
          3.57142873e-02, 0., 0., 0., 1.78571437e-02, 0., 1.78571437e-02,
          0., 0., 3.57142873e-02, 0., 0., 0., 0., 0., 0., 1.78571437e-02,
          0., 0., 1.78571437e-02, 0., 1.78571437e-02, 0., 1.78571437e-02,
          1.78571437e-02, 0., 0., 0., 0., 0., 0., 1.78571437e-02,
          1.78571437e-02, 0., 1.78571437e-02, 1.78571437e-02, 0., 0., 0.,
          0., 0., 0., 0., 0., 0., 0., 0., 0., 0., 0., 0., 0., 0., 0., 0.,
          0., 0., 0., 0., 0., 0., 0., 0., 0., 0., 0., 0., 0., 0.,
          1.78571437e-02, 0., 0., 0., 0., 1.78571437e-02, 0.,
          1.78571437e-02, 1.78571437e-02, 1.78571437e-02, 0.,
          1.78571437e-02, 0., 1.78571437e-02, 0., 0., 0., 0., 0., 0., 0.,
          0., 1.78571437e-02, 1.78571437e-02, 0., 0., 0., 0., 0., 0., 0.,
          0., 1.78571437e-02, 0., 0., 0., 0., 1.78571437e-02, 0., 0., 0.,
          0., 0., 0., 1.78571437e-02, 0., 1.78571437e-02, 1.78571437e-02,
          1.78571437e-02, 1.78571437e-02, 1.78571437e-02, 1.78571437e-02,
          0., 0., 0., 0., 0., 0., 0., 0., 0., 0., 0., 0., 1.78571437e-02,
          0., 1.78571437e-02, 1.78571437e-02, 1.78571437e-02, 0.,
          3.57142873e-02, 0., 1.78571437e-02, 1.78571437e-02, 0.,
          1.78571437e-02, 0., 0., 0., 3.57142873e-02, 0., 0., 0.,
          1.78571437e-02, 0., 1.78571437e-02, 0., 0., 0., 1.78571437e-02,
          0., 1.78571437e-02, 0., 1.78571437e-02, 0., 0., 0., 0., 0., 0.,
          0., 1.78571437e-02, 0., 1.78571437e-02, 0., 0., 1.78571437e-02,
          0., 0., 0., 0., 0., 0. ]
      - [ 0., 0., 1.85185187e-02, 9.25925933e-03, 9.25925933e-03, 0., 0.,
          0., 9.25925933e-03, 9.25925933e-03, 0., 0., 1.85185187e-02,
          9.25925933e-03, 9.25925933e-03, 0., 9.25925933e-03,
          3.70370373e-02, 0., 9.25925933e-03, 0., 9.25925933e-03, 0., 0.,
          0., 0., 1.85185187e-02, 9.25925933e-03, 0., 0., 0.,
          9.25925933e-03, 0., 0., 1.85185187e-02, 0., 0., 0.,
          1.85185187e-02, 0., 0., 9.25925933e-03, 0., 9.25925933e-03, 0.,
          0., 0., 9.25925933e-03, 0., 0., 0., 0., 0., 0., 0., 0., 0., 0.,
          9.25925933e-03, 9.25925933e-03, 9.25925933e-03, 0., 0., 0.,
          1.85185187e-02, 9.25925933e-03, 9.25925933e-03, 9.25925933e-03,
          0., 3.70370373e-02, 9.25925933e-03, 0., 0., 0., 0., 0., 0.,
          9.25925933e-03, 0., 9.25925933e-03, 0., 0., 0., 0., 0., 0., 0.,
          0., 9.25925933e-03, 0., 0., 0., 0., 0., 0., 9.25925933e-03, 0.,
          0., 9.25925933e-03, 2.77777780e-02, 9.25925933e-03, 0., 0.,
          9.25925933e-03, 0., 1.85185187e-02, 0., 0., 1.85185187e-02, 0.,
          9.25925933e-03, 9.25925933e-03, 0., 1.85185187e-02,
          9.25925933e-03, 0., 1.85185187e-02, 0., 0., 0., 9.25925933e-03,
          9.25925933e-03, 2.77777780e-02, 0., 0., 0., 9.25925933e-03, 0.,
          1.85185187e-02, 9.25925933e-03, 9.25925933e-03, 0., 0., 0., 0.,
          0., 9.25925933e-03, 9.25925933e-03, 0., 0., 0., 0., 0.,
          9.25925933e-03, 9.25925933e-03, 0., 0., 0., 9.25925933e-03,
          1.85185187e-02, 2.77777780e-02, 0., 0., 1.85185187e-02,
          9.25925933e-03, 0., 9.25925933e-03, 9.25925933e-03,
          9.25925933e-03, 0., 0., 0., 0., 2.77777780e-02, 0., 0.,
          9.25925933e-03, 1.85185187e-02, 0., 0., 9.25925933e-03, 0., 0.,
          0., 9.25925933e-03, 0., 9.25925933e-03, 0., 0., 0., 0., 0., 0.,
          9.25925933e-03, 0., 0., 9.25925933e-03, 9.25925933e-03, 0.,
          9.25925933e-03, 2.77777780e-02, 9.25925933e-03, 0., 0.,
          1.85185187e-02, 0., 0., 0., 9.25925933e-03, 0. ]
      - [ 0., 2.12765951e-02, 0., 0., 0., 0., 0., 0., 0., 0., 0., 0., 0.,
          0., 0., 0., 0., 0., 0., 0., 0., 0., 0., 0., 0., 0., 0., 0.,
          2.12765951e-02, 2.12765951e-02, 0., 0., 0., 0., 0., 0.,
          2.12765951e-02, 0., 0., 0., 2.12765951e-02, 0., 2.12765951e-02,
          0., 0., 0., 0., 2.12765951e-02, 0., 0., 0., 0., 0., 0., 0.,
          2.12765951e-02, 0., 0., 2.12765951e-02, 0., 2.12765951e-02, 0.,
          2.12765951e-02, 0., 0., 0., 0., 2.12765951e-02, 0.,
          2.12765951e-02, 0., 0., 0., 2.12765951e-02, 0., 0., 0., 0., 0.,
          2.12765951e-02, 0., 0., 0., 2.12765951e-02, 4.25531901e-02, 0.,
          0., 0., 0., 2.12765951e-02, 0., 0., 0., 0., 0., 0.,
          2.12765951e-02, 0., 2.12765951e-02, 0., 4.25531901e-02, 0., 0.,
          0., 0., 0., 0., 2.12765951e-02, 2.12765951e-02, 0., 0., 0., 0.,
          0., 0., 2.12765951e-02, 4.25531901e-02, 0., 0., 2.12765951e-02,
          0., 0., 0., 2.12765951e-02, 0., 0., 0., 0., 0., 2.12765951e-02,
          2.12765951e-02, 0., 0., 0., 0., 2.12765951e-02, 2.12765951e-02,
          0., 2.12765951e-02, 0., 0., 2.12765951e-02, 0., 0., 0., 0., 0.,
          0., 2.12765951e-02, 0., 0., 4.25531901e-02, 0., 0., 0., 0.,
          2.12765951e-02, 0., 2.12765951e-02, 2.12765951e-02, 0., 0., 0.,
          2.12765951e-02, 0., 0., 0., 0., 0., 0., 0., 0., 0.,
          2.12765951e-02, 0., 0., 0., 0., 0., 0., 0., 0., 0., 0., 0., 0.,
          0., 2.12765951e-02, 0., 0., 0., 2.12765951e-02, 0., 0., 0., 0.,
          0., 0., 0., 2.12765951e-02 ]
      - [ 0., 1.44927539e-02, 0., 0., 0., 1.44927539e-02, 0., 0., 0., 0.,
          0., 0., 2.89855078e-02, 1.44927539e-02, 0., 0., 0., 0., 0.,
          1.44927539e-02, 0., 0., 0., 1.44927539e-02, 2.89855078e-02,
          1.44927539e-02, 0., 0., 0., 1.44927539e-02, 1.44927539e-02, 0.,
          0., 0., 2.89855078e-02, 0., 1.44927539e-02, 0., 1.44927539e-02,
          0., 0., 2.89855078e-02, 1.44927539e-02, 0., 0., 1.44927539e-02,
          0., 0., 0., 0., 0., 0., 0., 0., 0., 0., 0., 0., 1.44927539e-02,
          0., 2.89855078e-02, 0., 0., 0., 0., 1.44927539e-02, 0., 0., 0.,
          0., 0., 0., 0., 2.89855078e-02, 0., 0., 0., 1.44927539e-02, 0.,
          0., 1.44927539e-02, 1.44927539e-02, 0., 0., 2.89855078e-02,
          1.44927539e-02, 0., 1.44927539e-02, 0., 0., 1.44927539e-02, 0.,
          1.44927539e-02, 1.44927539e-02, 0., 1.44927539e-02, 0., 0.,
          1.44927539e-02, 0., 0., 0., 0., 0., 0., 0., 0., 0.,
          2.89855078e-02, 0., 0., 0., 2.89855078e-02, 1.44927539e-02, 0.,
          0., 0., 1.44927539e-02, 0., 0., 0., 0., 0., 1.44927539e-02, 0.,
          4.34782617e-02, 0., 0., 0., 0., 2.89855078e-02, 0., 0.,
          1.44927539e-02, 0., 0., 1.44927539e-02, 2.89855078e-02, 0., 0.,
          0., 0., 0., 0., 0., 0., 0., 0., 0., 0., 0., 0., 0., 0., 0., 0.,
          0., 1.44927539e-02, 0., 0., 0., 1.44927539e-02, 0., 0., 0.,
          2.89855078e-02, 0., 0., 0., 0., 1.44927539e-02, 0., 0., 0.,
          1.44927539e-02, 1.44927539e-02, 0., 0., 1.44927539e-02, 0., 0.,
          0., 0., 0., 0., 1.44927539e-02, 0., 0., 1.44927539e-02,
          1.44927539e-02, 0., 0., 0., 2.89855078e-02, 1.44927539e-02, 0.,
          1.44927539e-02, 0., 0., 0. ]
      - [ 1.47058824e-02, 0., 1.47058824e-02, 0., 0., 0., 0., 0.,
          2.94117648e-02, 1.47058824e-02, 0., 0., 1.47058824e-02,
          2.94117648e-02, 0., 0., 1.47058824e-02, 0., 0., 0., 0.,
          1.47058824e-02, 0., 2.94117648e-02, 0., 2.94117648e-02,
          1.47058824e-02, 2.94117648e-02, 0., 0., 1.47058824e-02, 0., 0.,
          0., 0., 0., 0., 0., 0., 1.47058824e-02, 0., 0., 0., 0., 0., 0.,
          0., 0., 0., 0., 0., 0., 0., 1.47058824e-02, 0., 0., 0., 0., 0.,
          0., 1.47058824e-02, 0., 0., 4.41176482e-02, 0., 0., 0., 0.,
          1.47058824e-02, 0., 0., 0., 1.47058824e-02, 0., 0., 0., 0.,
          2.94117648e-02, 0., 0., 1.47058824e-02, 0., 0., 0.,
          1.47058824e-02, 0., 0., 0., 0., 0., 1.47058824e-02, 0., 0., 0.,
          1.47058824e-02, 0., 0., 0., 0., 0., 1.47058824e-02, 0., 0., 0.,
          0., 1.47058824e-02, 1.47058824e-02, 0., 0., 0., 1.47058824e-02,
          1.47058824e-02, 0., 0., 0., 0., 1.47058824e-02, 0., 0., 0., 0.,
          0., 1.47058824e-02, 1.47058824e-02, 0., 2.94117648e-02, 0.,
          1.47058824e-02, 0., 0., 0., 0., 0., 0., 5.88235296e-02, 0., 0.,
          0., 0., 0., 0., 0., 0., 0., 1.47058824e-02, 0., 0., 0.,
          1.47058824e-02, 0., 0., 0., 0., 1.47058824e-02, 1.47058824e-02,
          1.47058824e-02, 0., 1.47058824e-02, 0., 0., 1.47058824e-02,
          1.47058824e-02, 0., 0., 0., 0., 0., 0., 0., 2.94117648e-02, 0.,
          0., 2.94117648e-02, 0., 0., 0., 1.47058824e-02, 0., 0., 0., 0.,
          1.47058824e-02, 0., 1.47058824e-02, 0., 1.47058824e-02, 0.,
          1.47058824e-02, 0., 0., 4.41176482e-02, 0., 0., 0., 0., 0., 0.,
          1.47058824e-02, 0., 0. ]
      - [ 0., 0., 0., 0., 2.04081628e-02, 0., 0., 0., 6.12244904e-02, 0.,
          0., 0., 0., 0., 4.08163257e-02, 0., 0., 0., 0., 0., 0., 0.,
          6.12244904e-02, 0., 0., 0., 0., 0., 0., 0., 0., 0., 0., 0., 0.,
          2.04081628e-02, 0., 0., 0., 0., 0., 0., 0., 2.04081628e-02, 0.,
          0., 0., 0., 0., 0., 0., 0., 0., 0., 0., 4.08163257e-02, 0., 0.,
          0., 2.04081628e-02, 2.04081628e-02, 0., 2.04081628e-02, 0., 0.,
          0., 0., 0., 2.04081628e-02, 4.08163257e-02, 0., 0., 0., 0., 0.,
          0., 0., 0., 0., 0., 0., 0., 2.04081628e-02, 0., 0., 0., 0., 0.,
          0., 0., 0., 0., 0., 0., 0., 2.04081628e-02, 0., 0., 0.,
          4.08163257e-02, 0., 0., 0., 0., 0., 0., 0., 0., 0., 0., 0., 0.,
          0., 0., 0., 2.04081628e-02, 0., 0., 0., 0., 2.04081628e-02,
          2.04081628e-02, 0., 0., 2.04081628e-02, 0., 0., 0., 0., 0., 0.,
          2.04081628e-02, 0., 0., 0., 0., 0., 0., 0., 2.04081628e-02,
          2.04081628e-02, 0., 0., 0., 2.04081628e-02, 0., 0.,
          2.04081628e-02, 4.08163257e-02, 0., 2.04081628e-02, 0., 0.,
          2.04081628e-02, 0., 0., 0., 0., 0., 0., 2.04081628e-02,
          2.04081628e-02, 0., 0., 0., 0., 0., 2.04081628e-02,
          4.08163257e-02, 0., 4.08163257e-02, 0., 0., 0., 0., 0.,
          2.04081628e-02, 0., 0., 0., 0., 0., 0., 0., 0., 2.04081628e-02,
          2.04081628e-02, 0., 2.04081628e-02, 2.04081628e-02, 0., 0., 0.,
          0., 0., 0., 2.04081628e-02, 0., 0., 0. ]
      - [ 0., 0., 1.56250000e-02, 0., 0., 0., 0., 0., 0., 1.56250000e-02,
          0., 0., 1.56250000e-02, 3.12500000e-02, 0., 0., 0., 0.,
          1.56250000e-02, 0., 0., 1.56250000e-02, 0., 1.56250000e-02, 0.,
          3.12500000e-02, 0., 3.12500000e-02, 0., 0., 1.56250000e-02, 0.,
          0., 0., 0., 0., 3.12500000e-02, 0., 0., 0., 0., 0., 0., 0., 0.,
          0., 0., 0., 0., 0., 0., 0., 0., 0., 1.56250000e-02, 0., 0., 0.,
          0., 0., 0., 0., 0., 1.56250000e-02, 0., 0., 0., 0., 0., 0., 0.,
          0., 1.56250000e-02, 1.56250000e-02, 0., 0., 0., 1.56250000e-02,
          1.56250000e-02, 0., 1.56250000e-02, 0., 0., 0., 0., 0., 0., 0.,
          0., 0., 1.56250000e-02, 0., 4.68750000e-02, 0., 1.56250000e-02,
          0., 0., 0., 0., 1.56250000e-02, 0., 0., 0., 0., 1.56250000e-02,
          1.56250000e-02, 3.12500000e-02, 0., 0., 0., 0., 1.56250000e-02,
          0., 1.56250000e-02, 1.56250000e-02, 0., 0., 0., 0., 0., 0., 0.,
          1.56250000e-02, 0., 0., 1.56250000e-02, 0., 0., 1.56250000e-02,
          0., 0., 0., 0., 0., 6.25000000e-02, 0., 0., 0., 0., 0., 0., 0.,
          0., 0., 1.56250000e-02, 0., 0., 0., 1.56250000e-02, 0., 0., 0.,
          0., 0., 0., 3.12500000e-02, 1.56250000e-02, 1.56250000e-02,
          1.56250000e-02, 0., 1.56250000e-02, 0., 1.56250000e-02, 0., 0.,
          0., 0., 1.56250000e-02, 0., 0., 1.56250000e-02, 0.,
          1.56250000e-02, 0., 0., 1.56250000e-02, 3.12500000e-02, 0., 0.,
          0., 1.56250000e-02, 0., 0., 1.56250000e-02, 0., 1.56250000e-02,
          0., 0., 3.12500000e-02, 0., 1.56250000e-02, 1.56250000e-02, 0.,
          0., 0., 0., 0., 0., 0., 0. ]
      - [ 0., 0., 0., 0., 0., 0., 1.99999996e-02, 0., 0., 0., 0.,
          1.99999996e-02, 0., 0., 0., 0., 1.99999996e-02, 0., 0.,
          1.99999996e-02, 0., 0., 0., 0., 1.99999996e-02, 1.99999996e-02,
          0., 0., 0., 0., 0., 1.99999996e-02, 0., 0., 0., 0., 0., 0., 0.,
          1.99999996e-02, 0., 0., 0., 0., 0., 0., 1.99999996e-02,
          1.99999996e-02, 0., 0., 0., 0., 1.99999996e-02, 0.,
          3.99999991e-02, 0., 0., 0., 0., 0., 0., 0., 0., 0., 0.,
          1.99999996e-02, 0., 0., 1.99999996e-02, 0., 0., 0., 0., 0., 0.,
          1.99999996e-02, 3.99999991e-02, 0., 0., 1.99999996e-02,
          1.99999996e-02, 1.99999996e-02, 0., 3.99999991e-02, 0.,
          1.99999996e-02, 0., 0., 0., 0., 3.99999991e-02, 0.,
          1.99999996e-02, 3.99999991e-02, 0., 0., 0., 0., 3.99999991e-02,
          0., 0., 1.99999996e-02, 0., 0., 0., 0., 0., 1.99999996e-02,
          1.99999996e-02, 0., 0., 1.99999996e-02, 0., 0., 0., 0., 0., 0.,
          0., 0., 0., 0., 0., 0., 0., 0., 0., 0., 0., 0., 1.99999996e-02,
          1.99999996e-02, 0., 0., 0., 0., 0., 0., 1.99999996e-02, 0., 0.,
          0., 0., 0., 0., 1.99999996e-02, 1.99999996e-02, 0., 0., 0., 0.,
          0., 0., 0., 0., 5.99999987e-02, 0., 0., 0., 0., 0., 0., 0., 0.,
          0., 1.99999996e-02, 1.99999996e-02, 0., 0., 0., 0., 0., 0., 0.,
          1.99999996e-02, 3.99999991e-02, 0., 0., 0., 0., 0., 0., 0., 0.,
          0., 1.99999996e-02, 0., 0., 0., 1.99999996e-02, 0., 0., 0., 0.,
          0., 0., 0., 0., 0., 0. ]
      - [ 0., 0., 2.08333340e-02, 0., 2.08333340e-02, 0., 0., 0., 0., 0.,
          4.16666679e-02, 0., 2.08333340e-02, 0., 0., 0., 0.,
          2.08333340e-02, 2.08333340e-02, 0., 2.08333340e-02, 0., 0., 0.,
          0., 0., 0., 0., 0., 0., 0., 0., 0., 0., 0., 2.08333340e-02, 0.,
          0., 0., 0., 0., 0., 2.08333340e-02, 0., 0., 0., 2.08333340e-02,
          0., 0., 0., 2.08333340e-02, 0., 0., 0., 0., 0., 0., 0., 0., 0.,
          0., 0., 0., 2.08333340e-02, 2.08333340e-02, 0., 0., 0.,
          4.16666679e-02, 0., 0., 0., 2.08333340e-02, 0., 0., 0., 0.,
          2.08333340e-02, 0., 0., 0., 0., 0., 0., 0., 0., 0., 0., 0., 0.,
          0., 0., 2.08333340e-02, 0., 0., 0., 0., 0., 0., 2.08333340e-02,
          2.08333340e-02, 0., 0., 0., 2.08333340e-02, 0., 0., 0., 0., 0.,
          0., 0., 0., 0., 0., 0., 0., 0., 2.08333340e-02, 4.16666679e-02,
          2.08333340e-02, 0., 2.08333340e-02, 0., 0., 2.08333340e-02, 0.,
          0., 2.08333340e-02, 2.08333340e-02, 0., 0., 0., 4.16666679e-02,
          0., 0., 0., 0., 0., 2.08333340e-02, 0., 0., 0., 0., 0.,
          2.08333340e-02, 0., 0., 2.08333340e-02, 0., 0., 0.,
          2.08333340e-02, 0., 4.16666679e-02, 0., 0., 2.08333340e-02, 0.,
          4.16666679e-02, 0., 0., 2.08333340e-02, 0., 0., 0., 0., 0., 0.,
          2.08333340e-02, 0., 0., 0., 0., 2.08333340e-02, 0., 0., 0., 0.,
          0., 0., 0., 0., 0., 0., 2.08333340e-02, 0., 0., 0., 0.,
          2.08333340e-02, 0., 0., 0., 2.08333340e-02, 0., 2.08333340e-02,
          0., 0., 0. ]
      - [ 0., 0., 4.44444455e-02, 0., 0., 0., 0., 0., 0., 2.22222228e-02,
          0., 0., 2.22222228e-02, 2.22222228e-02, 0., 0., 0., 0., 0., 0.,
          0., 0., 0., 4.44444455e-02, 0., 0., 4.44444455e-02,
          4.44444455e-02, 0., 0., 4.44444455e-02, 0., 0., 0., 0.,
          2.22222228e-02, 0., 0., 0., 2.22222228e-02, 0., 0., 0., 0., 0.,
          0., 0., 0., 0., 2.22222228e-02, 0., 0., 0., 0., 0., 0., 0., 0.,
          0., 0., 0., 0., 0., 0., 0., 0., 2.22222228e-02, 0., 0., 0., 0.,
          0., 0., 0., 0., 0., 0., 0., 2.22222228e-02, 0., 0., 0., 0., 0.,
          0., 4.44444455e-02, 0., 0., 0., 0., 2.22222228e-02, 0.,
          2.22222228e-02, 0., 0., 0., 4.44444455e-02, 0., 0., 0., 0., 0.,
          0., 0., 2.22222228e-02, 0., 2.22222228e-02, 2.22222228e-02, 0.,
          0., 0., 0., 0., 0., 0., 2.22222228e-02, 0., 0., 0., 0., 0., 0.,
          2.22222228e-02, 0., 0., 2.22222228e-02, 0., 0., 0.,
          2.22222228e-02, 2.22222228e-02, 0., 0., 0., 0., 0.,
          2.22222228e-02, 0., 0., 0., 0., 0., 0., 2.22222228e-02, 0., 0.,
          0., 0., 0., 0., 4.44444455e-02, 0., 0., 0., 0., 0.,
          2.22222228e-02, 0., 2.22222228e-02, 0., 0., 0., 0., 0., 0., 0.,
          0., 0., 2.22222228e-02, 0., 0., 0., 0., 0., 0., 0., 0., 0.,
          2.22222228e-02, 0., 0., 0., 0., 2.22222228e-02, 0.,
          2.22222228e-02, 2.22222228e-02, 2.22222228e-02, 0., 0., 0., 0.,
          0., 0., 0., 0., 0., 2.22222228e-02, 0., 0. ]
      - [ 0., 0., 1.53846154e-02, 0., 0., 0., 0., 0., 3.07692308e-02,
          1.53846154e-02, 0., 0., 0., 1.53846154e-02, 0., 0.,
          1.53846154e-02, 0., 0., 0., 0., 0., 0., 3.07692308e-02, 0.,
          3.07692308e-02, 0., 0., 1.53846154e-02, 0., 0., 0., 0., 0.,
          1.53846154e-02, 0., 0., 0., 0., 0., 0., 0., 0., 0., 0., 0., 0.,
          3.07692308e-02, 0., 0., 0., 0., 0., 1.53846154e-02, 0., 0., 0.,
          0., 0., 0., 0., 0., 0., 3.07692308e-02, 0., 0., 1.53846154e-02,
          0., 3.07692308e-02, 0., 1.53846154e-02, 0., 0., 0., 0., 0., 0.,
          0., 1.53846154e-02, 1.53846154e-02, 0., 0., 0., 0., 0.,
          1.53846154e-02, 3.07692308e-02, 1.53846154e-02, 0.,
          1.53846154e-02, 1.53846154e-02, 0., 3.07692308e-02, 0.,
          1.53846154e-02, 1.53846154e-02, 1.53846154e-02, 0., 0.,
          3.07692308e-02, 1.53846154e-02, 0., 0., 0., 0., 0., 0., 0., 0.,
          0., 0., 0., 0., 3.07692308e-02, 0., 0., 3.07692308e-02, 0., 0.,
          0., 0., 0., 3.07692308e-02, 0., 0., 0., 0., 0., 1.53846154e-02,
          0., 0., 1.53846154e-02, 0., 0., 0., 0., 1.53846154e-02,
          1.53846154e-02, 0., 0., 0., 0., 0., 3.07692308e-02, 0., 0.,
          1.53846154e-02, 0., 0., 0., 0., 0., 0., 0., 0., 0.,
          1.53846154e-02, 0., 0., 0., 0., 0., 1.53846154e-02, 0., 0., 0.,
          1.53846154e-02, 0., 0., 1.53846154e-02, 1.53846154e-02, 0., 0.,
          0., 0., 1.53846154e-02, 1.53846154e-02, 0., 0., 0.,
          1.53846154e-02, 0., 0., 1.53846154e-02, 0., 0., 0., 0.,
          1.53846154e-02, 0., 0., 1.53846154e-02, 0., 1.53846154e-02,
          1.53846154e-02, 0., 1.53846154e-02, 0., 1.53846154e-02, 0. ]
      - [ 3.27868834e-02, 0., 0., 0., 0., 0., 0., 0., 1.63934417e-02, 0.,
          0., 0., 0., 1.63934417e-02, 0., 0., 0., 0., 1.63934417e-02,
          1.63934417e-02, 0., 3.27868834e-02, 0., 0., 1.63934417e-02, 0.,
          0., 0., 0., 0., 0., 1.63934417e-02, 1.63934417e-02,
          1.63934417e-02, 0., 0., 0., 0., 1.63934417e-02, 0., 0., 0., 0.,
          1.63934417e-02, 0., 0., 0., 0., 0., 0., 0., 1.63934417e-02, 0.,
          0., 0., 0., 0., 0., 0., 0., 0., 0., 0., 0., 0., 0.,
          1.63934417e-02, 0., 0., 0., 1.63934417e-02, 0., 0., 0., 0., 0.,
          0., 1.63934417e-02, 0., 0., 0., 1.63934417e-02, 0., 0., 0., 0.,
          0., 0., 1.63934417e-02, 0., 0., 0., 0., 0., 0., 0., 0., 0., 0.,
          1.63934417e-02, 0., 0., 0., 1.63934417e-02, 0., 0., 0.,
          1.63934417e-02, 0., 0., 0., 3.27868834e-02, 0., 4.91803251e-02,
          0., 0., 1.63934417e-02, 0., 0., 1.63934417e-02, 1.63934417e-02,
          0., 0., 0., 0., 0., 3.27868834e-02, 0., 0., 0., 0., 0., 0., 0.,
          0., 0., 0., 1.63934417e-02, 3.27868834e-02, 0., 0., 0., 0., 0.,
